{
"has_gp_model": 1,
"booster_str": "tree\nversion=v3\nnum_class=1\nnum_tree_per_iteration=1\nlabel_index=0\nmax_feature_idx=6\nobjective=regression\nfeature_names=log_GDPpC Water_Stress log_TIRWRpC Agri bEvents HDI agr_GDP\nfeature_infos=[4.4809205207999332:11.689125851198405] [-9.9557460975288361:3.9343535912799137] [0:13.43299341926396] [0:380.73771842963333] [0:1] [0.21299999999999999:0.95400000000000007] [0.030811000000000002:71.361449800000003]\ntree_sizes=2017 2296 2032 1638 1072 1303 1126 983 1631 2530 2263 2681 2670 2682 2689 2682 2695 2684 2693 2691 2605 2664 2689 2655 2676 2516 2439 2584 2684 2600 2676 2685 2682 2437 2694 2682 2682 2682 2656 2360 2686 2614 2682 2687 2680 2683 2679 2671 2683 2680 2679 2696 2529 2702 2686 2683 2687 2682 2678 2033 2196 2351 2364 1791 2439 1783 2121 1794 2447 2613 1553 2615 1635 1959 1793 1800 1957 1877 1940 1797 1786 1706 1786 1795 1782 1791 1786 1790 1792 2274 2456 2360 2202 2366 2279 2439 2358 2444 2280 2362 2357 2443 2442 2424 2443 2431 2441 2357 2343 2126 2359 2208 2276 2197 2351 1795 1702 1789 1866 1625 1706 2337 2280 2275 2370 2110 2114 2362 2353 2266 2439 2270 2280 2186 2530 2447 2567 2595 2446 2501 2277 2361 2587 2530 2606 2609 2516 2523 2363 2444 2605 2621 2604 2621 2360 2525 2442 2523 2369 2720 2455 2549 2677 2694 2459 2617 2444 2523 2688 2686 2519 2210 1715 1691 2116 2376 2371 1877 2128 2128 1714 1797 2041 1791 1876 2119 2205 2047 2123 2278 2037 2022 2274 2181 2367 2192 2196 2096 2121 2108\n\nTree=0\nnum_leaves=24\nnum_cat=0\nsplit_feature=4 0 1 2 2 0 3 0 3 3 6 6 5 2 5 2 6 2 5 5 3 2 3\nsplit_gain=316.21 166.379 100.972 101.953 145.987 96.6357 81.4773 60.8092 56.0602 45.8068 33.6793 30.1847 34.6327 28.9958 28.2178 25.272 25.1294 93.1608 40.1038 23.7274 21.9785 12.4086 2.48896\nthreshold=1.0000000180025095e-35 8.0211976714476396 -0.61648707191559415 6.8624085578178766 6.1017521617273731 6.4444977616444197 42.517813599030006 7.000255975613495 24.820344294860003 88.313092624890018 11.228683550000001 14.984464000000001 0.53110000000000013 10.346082239755981 0.90390000000000004 11.226127170951839 4.8895389000000007 9.720966887530901 0.7734000000000002 0.67970000000000008 66.21607863907002 8.0718526922232972 9.170088583010001\ndecision_type=2 2 2 2 2 2 2 2 2 2 2 2 2 2 2 2 2 2 2 2 2 2 2\nleft_child=1 2 3 4 -1 -2 8 20 13 -9 14 19 -13 -5 15 16 18 -18 -3 -7 -8 -21 -16\nright_child=5 10 -4 6 -6 11 7 9 -10 -11 -12 12 -14 -15 22 -17 17 -19 -20 21 -22 -23 -24\nleaf_value=13.07895368737891 13.142117191038681 13.096762030103958 12.940363691472436 13.177590125974136 13.406392694582884 13.206353861461693 12.944561932088288 13.088089792076389 13.273186441199375 13.236165770197207 13.278921342592747 13.289855121677041 13.4468378995776 13.041795995792798 13.269364940990206 13.076587115046346 13.16607383844693 13.347625572664027 13.180772085305243 13.35853476690578 13.048124968797984 13.262990542875123 13.22200587919162\nleaf_weight=25 34 72 33 34 26 27 26 72 35 27 34 27 33 26 25 25 113 35 219 35 120 27 30\nleaf_count=25 34 72 33 34 26 27 26 72 35 27 34 27 33 26 25 25 113 35 219 35 120 27 30\ninternal_value=13.1735 13.1499 13.1037 13.118 13.2463 13.2902 13.0985 13.0687 13.1754 13.1289 13.1853 13.3242 13.3789 13.1183 13.179 13.1711 13.1766 13.2095 13.1599 13.2856 13.0284 13.3189 13.245\ninternal_weight=0 977 424 391 51 183 340 245 95 99 553 149 60 60 519 464 439 148 291 89 146 62 55\ninternal_count=1160 977 424 391 51 183 340 245 95 99 553 149 60 60 519 464 439 148 291 89 146 62 55\nis_linear=0\nshrinkage=1\n\n\nTree=1\nnum_leaves=26\nnum_cat=0\nsplit_feature=5 4 2 1 0 5 0 5 6 3 5 6 3 5 0 1 2 6 3 3 0 2 5 3 5\nsplit_gain=138.012 124.497 64.4882 114.741 100.457 67.1459 64.2512 59.9036 53.6814 49.4355 46.3443 98.466 100.311 35.5591 33.5985 71.2823 28.1661 30.2562 22.126 68.7589 20.8808 11.2172 8.45854 8.10776 5.96145\nthreshold=0.45820000000000005 1.0000000180025095e-35 10.262069045953833 -4.0652928797273455 8.5598540807893624 0.79270000000000007 9.3568476630355004 0.66615000000000013 1.7143066000000002 51.829050677200009 0.30800000000000011 37.523274700000009 38.464332409940006 0.62550000000000006 6.1384341438539645 -3.1945132837040782 8.024448078326488 2.5302769000000009 90.759590714580028 87.084795057160008 8.3442589926215014 7.1044886649740198 0.61870000000000014 38.062840974490008 0.80330000000000024\ndecision_type=2 2 2 2 2 2 2 2 2 2 2 2 2 2 2 2 2 2 2 2 2 2 2 2 2\nleft_child=10 2 3 6 22 8 7 9 -5 -2 -1 12 -12 -10 -14 -16 17 -7 19 20 21 -3 -4 -18 -6\nright_child=1 18 4 5 24 16 -8 -9 13 -11 11 -13 14 -15 15 -17 23 -19 -20 -21 -22 -23 -24 -25 -26\nleaf_value=0.038690925810806763 0.16695244039011364 0.072366917569638228 -0.10478253494635766 -0.17153985946280753 0.064396358498761047 0.033739078257549002 -0.01236401548147751 0.26529816540793449 -0.071540232004482368 -0.0012862065207085974 0.1071753475072133 -0.25893289394386182 -0.18212172585937861 -0.002961475286888649 -0.16261428609179243 0.04877569552085334 -0.03062027463184868 0.14456678031059492 0.019938383090617233 0.2521586186176803 0.11963189265622783 -0.018018958345347478 -0.18185477261942132 0.029322193759634397 0.00011234459283990337\nleaf_weight=26 34 26 34 25 25 80 39 25 105 32 26 30 36 237 31 29 52 34 33 26 47 25 35 36 32\nleaf_count=26 34 26 34 25 25 80 39 25 105 32 26 30 36 237 31 29 52 34 33 26 47 25 35 36 32\ninternal_value=0 0.0129908 -0.00225056 0.00938593 -0.0666902 -0.00961057 0.0923163 0.137204 -0.0346362 0.0858799 -0.0807613 -0.101455 -0.0611859 -0.0242024 -0.107528 -0.060661 0.0356874 0.067743 0.0928816 0.111849 0.0727433 0.0279282 -0.145773 -0.00576165 0.0292278\ninternal_weight=0 982 825 699 126 569 130 91 367 66 178 152 122 342 96 60 202 114 157 124 98 51 69 88 57\ninternal_count=1160 982 825 699 126 569 130 91 367 66 178 152 122 342 96 60 202 114 157 124 98 51 69 88 57\nis_linear=0\nshrinkage=0.0981432\n\n\nTree=2\nnum_leaves=23\nnum_cat=0\nsplit_feature=0 0 2 1 0 0 2 2 0 3 0 5 5 3 1 2 6 5 3 6 1 3\nsplit_gain=109.834 86.033 109.028 88.1205 73.5291 72.7348 49.2424 50.85 30.1205 86.2687 57.5572 41.4815 42.5844 34.4548 21.0054 19.889 43.1132 16.3739 15.7936 13.2623 12.955 11.9803\nthreshold=7.1279217269318256 6.8157378146935335 7.2858011348181 -6.678288828382942 6.1205493347695601 7.3442831930265386 9.8187790610604004 8.8681562894501251 8.2520943229606214 73.052845525050017 8.3130825282408356 0.61630000000000018 0.70510000000000006 86.38099974438002 -2.2698598786103115 11.261565653228571 5.0567417000000008 0.67410000000000025 85.961695713020021 25.361218700000006 -4.1889590769902894 88.723956527340007\ndecision_type=2 2 2 2 2 2 2 2 2 2 2 2 2 2 2 2 2 2 2 2 2 2\nleft_child=1 2 4 -4 -1 14 7 20 9 11 -10 -7 -13 15 -2 16 -12 18 -11 -6 -5 -3\nright_child=5 21 3 6 19 8 -8 -9 10 17 13 12 -14 -15 -16 -17 -18 -19 -20 -21 -22 -23\nleaf_value=-0.067308950383457258 0.19522412488697957 -0.16883617339467208 0.10115484820118513 -0.1575473753572687 0.082002604188975384 0.0052497563160433325 -0.21983040836364426 0.023225312511887249 0.16565584099907185 0.069392368364499801 0.0092301765986715252 -0.18092013850554495 -0.020296675712501155 -0.072611907337076079 0.063922995505316646 -0.054077742299798691 0.07647330436388855 0.10603012978056126 -0.025725737941495169 0.17778777498237258 -0.076935306780753623 -0.079212646225740826\nleaf_weight=28 25 50 25 35 40 34 25 39 25 30 346 46 25 39 25 30 125 29 36 25 53 25\nleaf_count=28 25 50 25 35 40 34 25 39 25 30 346 46 25 39 25 30 125 29 36 25 53 25\ninternal_value=0 -0.0478595 -0.0217488 -0.0669371 0.0638232 0.0181441 -0.095113 -0.0692226 0.0105485 -0.0220618 0.0221523 -0.0831894 -0.125524 0.0152418 0.131986 0.0222304 0.027224 0.0453463 0.017406 0.120833 -0.110342 -0.140377\ninternal_weight=0 345 270 177 93 815 152 127 765 200 565 105 71 540 50 501 471 95 66 65 88 75\ninternal_count=1160 345 270 177 93 815 152 127 765 200 565 105 71 540 50 501 471 95 66 65 88 75\nis_linear=0\nshrinkage=0.0981432\n\n\nTree=3\nnum_leaves=18\nnum_cat=0\nsplit_feature=5 5 3 0 3 6 0 5 0 3 3 5 3 3 6 0 0\nsplit_gain=69.9882 53.2881 58.8894 68.9232 54.6435 41.0793 40.5039 44.1942 44.1648 63.6686 73.1788 60.2144 40.1325 34.0888 32.474 26.9593 38.7853\nthreshold=0.49870000000000003 0.43290000000000006 49.497941218870004 5.7822704674608412 83.356321839050011 26.645324500000005 6.6749031977347455 0.56310000000000004 8.6718847834267745 55.102773907770008 40.139535072790004 0.62130000000000007 85.713057948400021 62.980056074820013 18.798395100000004 10.846626747120862 9.2028904948784938\ndecision_type=2 2 2 2 2 2 2 2 2 2 2 2 2 2 2 2 2\nleft_child=1 2 -1 -4 14 6 -2 13 9 10 -9 -11 -5 -8 -3 16 -10\nright_child=5 4 3 12 -6 -7 7 8 15 11 -12 -13 -14 -15 -16 -17 -18\nleaf_value=0.088274858177363968 -0.10245278876340708 -0.24473488799514989 -0.15341810615672843 -0.054756488698964545 -0.014797077275481256 0.10605684153740129 0.0037438103701653317 -0.032820738605038778 0.061045233776892985 -0.076080377823570966 -0.21846905773606121 0.036233984148241388 0.10887666895048849 0.15261722213769724 -0.09661764161605095 0.1000346761424776 -0.0035350128045225342\nleaf_weight=42 31 25 37 32 44 41 26 68 128 63 29 164 25 35 38 40 292\nleaf_count=42 31 25 37 32 44 41 26 68 128 63 29 164 25 35 38 40 292\ninternal_value=0 -0.0482686 -0.00717464 -0.0504572 -0.0998469 0.0108916 0.00632153 0.0104295 0.00409452 -0.023589 -0.0898296 0.00480123 0.0170332 0.0903964 -0.157971 0.023657 0.0161569\ninternal_weight=0 243 136 94 107 917 876 845 784 324 97 227 57 61 63 460 420\ninternal_count=1160 243 136 94 107 917 876 845 784 324 97 227 57 61 63 460 420\nis_linear=0\nshrinkage=0.0981432\n\n\nTree=4\nnum_leaves=11\nnum_cat=0\nsplit_feature=2 0 1 2 2 1 1 1 5 6\nsplit_gain=65.6946 209.322 80.6709 129.679 55.0636 65.4327 72.398 70.3066 46.5354 43.3525\nthreshold=10.544652756718875 7.6741521677696793 -5.5890556549608013 10.222554558996796 4.4400538520912702 0.13858379515160849 -0.0098617211848184248 -0.38264442597891352 0.56050000000000011 6.2230384666666678\ndecision_type=2 2 2 2 2 2 2 2 2 2\nleft_child=2 -2 3 -1 -4 6 7 8 -6 -3\nright_child=1 9 4 -5 5 -7 -8 -9 -10 -11\nleaf_value=-0.019164986133475878 -0.31873371584654248 0.082045859938904897 0.10233727979019953 0.28224728382193626 -0.034438433863461987 -0.13409403304247378 0.15561087690026251 -0.14434419217901776 0.01517114170369448 -0.062533750010398501\nleaf_weight=29 25 36 47 25 261 36 27 33 598 43\nleaf_count=29 25 36 47 25 261 36 27 33 598 43\ninternal_value=0 -0.0756675 0.00581429 0.12183 -0.000497286 -0.00566127 -0.000497494 -0.00537757 5.03679e-05 0.00317086\ninternal_weight=0 104 1056 54 1002 955 919 892 859 79\ninternal_count=1160 104 1056 54 1002 955 919 892 859 79\nis_linear=0\nshrinkage=0.0981432\n\n\nTree=5\nnum_leaves=14\nnum_cat=0\nsplit_feature=2 2 5 2 6 6 6 0 1 1 5 2 1\nsplit_gain=64.5977 107.492 90.7109 112.183 71.4454 74.852 136.453 117.158 83.4981 104.72 71.6942 47.609 11.4889\nthreshold=10.336548775683045 10.199691590044599 0.66840000000000022 10.858394267856884 41.820714600000009 31.981273400000003 25.881942400000003 5.9410744662825801 -2.9507837054100885 -3.1556314963270959 0.46210000000000012 7.6341273807628367 -5.0571942019908152\ndecision_type=2 2 2 2 2 2 2 2 2 2 2 2 2\nleft_child=1 4 3 -2 5 6 8 -7 9 -1 -10 -8 -4\nright_child=2 -3 12 -5 -6 7 11 -9 10 -11 -12 -13 -14\nleaf_value=0.031754258666436143 -0.272698454553783 0.16313058317859389 0.058101269274793609 -0.016889591325341579 -0.16090603298922102 -0.035196202543602818 -0.19641205996595607 0.24836271199268678 -0.15847942738652515 0.22401109986582352 -0.0041097335134545115 -0.038631969531591474 -0.021173025069504969\nleaf_weight=253 33 40 30 33 25 26 42 29 30 30 515 34 40\nleaf_count=253 33 40 30 33 25 26 42 29 30 30 515 34 40\ninternal_value=0 0.00691494 -0.0648959 -0.146797 0.000419915 0.004774 -0.00200174 0.11516 0.00956395 0.0527598 -0.0128592 -0.127225 0.0126825\ninternal_weight=0 1024 136 66 984 959 904 55 828 283 545 76 70\ninternal_count=1160 1024 136 66 984 959 904 55 828 283 545 76 70\nis_linear=0\nshrinkage=0.0981432\n\n\nTree=6\nnum_leaves=12\nnum_cat=0\nsplit_feature=0 6 3 6 3 0 6 0 3 1 0\nsplit_gain=119.944 292.727 78.1696 131.721 90.3167 79.6965 55.2155 48.0632 49.4326 31.2218 28.9153\nthreshold=5.5729581909816099 35.913613433333346 88.723956527340007 26.87311 90.714496008190011 7.725012277377469 23.21532366666667 6.6558587237383637 81.456694525060016 -1.1981272516520234 6.6383413811411023\ndecision_type=2 2 2 2 2 2 2 2 2 2 2\nleft_child=-1 2 3 6 -4 9 7 -2 -9 10 -6\nright_child=1 -3 4 -5 5 -7 -8 8 -10 -11 -12\nleaf_value=0.1542065003400907 0.10598566880903275 -0.25680640901167673 -0.1886599305930485 0.17781263515011875 0.001642084789460914 -0.14121809453196885 -0.11098663008884617 -0.0043725924235580556 0.073428183947529174 -0.047595026749924899 0.13802660303269443\nleaf_weight=45 47 43 39 44 30 36 37 689 88 32 30\nleaf_count=45 47 43 39 44 30 36 37 689 88 32 30\ninternal_value=0 -0.00793834 0.00219034 0.0136097 -0.0593229 -0.0188514 0.00504208 0.0103791 0.00446659 0.0294938 0.0711202\ninternal_weight=0 1115 1072 905 167 128 861 824 777 92 60\ninternal_count=1160 1115 1072 905 167 128 861 824 777 92 60\nis_linear=0\nshrinkage=0.0981432\n\n\nTree=7\nnum_leaves=10\nnum_cat=0\nsplit_feature=0 6 6 1 0 6 5 5 4\nsplit_gain=82.2413 97.1157 79.1437 80.946 81.5127 56.4636 55.5425 75.8212 58.6497\nthreshold=5.4189367407726525 38.785381900000012 27.224621400000004 -3.1004697350998698 6.1205493347695601 25.701207700000001 0.43290000000000006 0.46710000000000002 1.0000000180025095e-35\ndecision_type=2 2 2 2 2 2 2 2 2\nleft_child=-1 2 5 4 -4 6 -2 -8 -9\nright_child=1 -3 3 -5 -6 -7 7 8 -10\nleaf_value=-0.17501125879459814 -0.10542949653758445 0.16640397360555617 -0.012683289519105382 0.048036758848351818 -0.23401037878540878 0.1364800456780057 0.137436836128216 0.011119589202376245 -0.059143706578383144\nleaf_weight=25 44 33 27 29 40 30 40 758 134\nleaf_count=25 44 33 27 29 40 30 40 758 134\ninternal_value=0 0.00238022 -0.00261629 -0.0874197 -0.146323 0.00550856 0.00135529 0.00650467 0.000494498\ninternal_weight=0 1135 1102 96 67 1006 976 932 892\ninternal_count=1160 1135 1102 96 67 1006 976 932 892\nis_linear=0\nshrinkage=0.0981432\n\n\nTree=8\nnum_leaves=18\nnum_cat=0\nsplit_feature=5 2 1 6 0 2 6 5 6 0 3 2 1 6 0 2 3\nsplit_gain=63.618 78.2692 122.89 51.9385 79.2846 121.979 137.974 70.5335 168.448 77.9811 44.8532 25.3531 25.3854 25.5044 20.84 15.6029 9.76307\nthreshold=0.82940000000000003 10.652728257420778 -6.8163899747001109 2.2482515000000007 7.5428923619283319 10.040587503728343 35.913613433333346 0.7400000000000001 5.4374101000000001 8.7303040440547548 56.131894394850001 7.4008597204125417 -1.9694772366462245 1.3738409333333335 9.7120410152069301 9.8631066929377855 10.989328663210001\ndecision_type=2 2 2 2 2 2 2 2 2 2 2 2 2 2 2 2 2\nleft_child=1 2 -1 14 5 6 -5 8 -6 -9 -3 16 13 -13 -4 -15 -2\nright_child=11 10 3 4 7 -7 -8 9 -10 -11 -12 12 -14 15 -16 -17 -18\nleaf_value=0.20679072198618628 0.046312795124306277 -0.20250691675062032 -0.14254595552637461 -0.044108737097216986 0.21022660644753752 -0.2372603313831422 0.12862619330592667 -0.13524034604181626 0.015701057357644654 0.018139290081113337 -0.036773356908540285 -0.037131798459184621 -0.051840753231289692 0.12211962921378748 -0.035275360083881553 0.03156672229694181 0.12658830513436672\nleaf_weight=25 26 30 36 318 55 26 51 43 188 117 34 25 32 36 36 40 42\nleaf_count=25 26 30 36 318 55 26 51 43 188 117 34 25 32 36 36 40 42\ninternal_value=0 -0.0120723 -0.0044999 -0.0107726 -0.00349815 -0.0347416 -0.0199535 0.0270674 0.0603431 -0.0233515 -0.116297 0.0485529 0.02313 0.0473466 -0.0901789 0.0755688 0.0971083\ninternal_weight=0 959 895 870 798 395 369 403 243 160 64 201 133 101 72 76 68\ninternal_count=1160 959 895 870 798 395 369 403 243 160 64 201 133 101 72 76 68\nis_linear=0\nshrinkage=0.0981432\n\n\nTree=9\nnum_leaves=29\nnum_cat=0\nsplit_feature=5 0 2 0 3 1 1 1 1 0 0 5 1 0 5 2 0 2 0 0 6 3 1 3 2 6 6 2\nsplit_gain=83.4993 133.006 112.221 98.6853 75.4234 103.56 110.115 85.4562 82.6217 70.2969 111.8 90.6485 117.325 119.078 89.2656 75.2472 57.5118 56.9757 53.4752 53.3554 29.4099 18.4324 15.9594 13.7986 24.1861 18.0156 4.33863 3.85592\nthreshold=0.72380000000000011 8.2297643258941182 7.4767556275630405 9.6729053436826202 73.690925782435016 -3.6403889676274903 -4.3522569669037621 -2.8051510159049062 -2.0353661593225687 7.9943540453913426 7.7025567595832625 0.48460000000000009 -4.1107258583146287 7.1896802149701164 0.43290000000000006 7.187244509869763 5.9679819329186143 7.4767556275630405 10.496524901922408 8.4512932108014187 4.410996775000001 38.062840974490008 -4.1107258583146287 2.7059948127700002 8.1463714464250057 2.0556167000000003 3.0944916000000005 8.1580518069736048\ndecision_type=2 2 2 2 2 2 2 2 2 2 2 2 2 2 2 2 2 2 2 2 2 2 2 2 2 2 2 2\nleft_child=1 9 -3 4 5 6 -2 -7 -6 10 11 14 13 -13 16 -14 -1 -16 23 -4 26 22 -20 -5 25 -25 -9 -12\nright_child=3 2 19 18 8 7 -8 20 -10 -11 27 12 15 -15 17 -17 -18 -19 21 -21 -22 -23 -24 24 -26 -27 -28 -29\nleaf_value=-0.056510827717968948 0.069271764859401799 0.0060688952085412272 -0.31213442986579226 0.014485657981055184 0.28957019566004943 0.24122790475256864 -0.21513401867864768 0.058746318299826412 0.067340213950578473 0.10949243530639656 -0.18539282708744198 0.2732941167294044 0.068075852166530129 0.020827664333488368 -0.040466460932241884 -0.059363101803620276 0.070539936925916286 -0.200472582869024 0.0767820370917459 -0.12818207151449598 -0.021766899937866492 0.11065699156303802 -0.020011703383725037 -0.062375074025115898 -0.11742217137851092 0.038506997300945388 0.12144977662990328 -0.11583815735650646\nleaf_weight=71 25 41 25 25 28 27 26 27 39 47 25 35 80 37 43 99 65 44 25 44 38 27 44 49 49 25 25 25\nleaf_count=71 25 41 25 25 28 27 26 27 39 47 25 35 80 37 43 99 65 44 25 44 38 27 44 49 49 25 25 25\ninternal_value=0 -0.0236107 -0.122055 0.0298302 0.0751365 0.039476 -0.076216 0.0902918 0.162754 -0.00446618 -0.0148781 -7.62327e-07 0.0403427 0.145451 -0.0455106 -0.00221483 0.00407272 -0.122699 -0.013793 -0.197819 0.0431196 0.0429075 0.0151246 -0.0507791 -0.0642643 -0.0278972 0.090675 -0.153335\ninternal_weight=0 681 110 479 235 168 51 117 67 571 524 474 251 72 223 179 136 87 244 69 90 96 69 148 123 74 52 50\ninternal_count=1160 681 110 479 235 168 51 117 67 571 524 474 251 72 223 179 136 87 244 69 90 96 69 148 123 74 52 50\nis_linear=0\nshrinkage=0.0981432\n\n\nTree=10\nnum_leaves=26\nnum_cat=0\nsplit_feature=5 0 5 5 0 0 0 3 0 3 5 6 2 0 3 5 5 0 0 2 0 2 2 3 6\nsplit_gain=79.167 217.437 183.296 194.416 177.1 117.853 222.858 100.958 100.456 115.792 97.8401 97.1195 133.067 87.6967 85.5974 75.9856 74.2324 121.543 76.8883 65.0084 63.934 55.9553 41.6132 38.2233 34.7322\nthreshold=0.61870000000000014 7.896930911637436 0.49470000000000003 0.4411000000000001 6.5126344519985881 8.2297643258941182 8.3130825282408356 82.034625825900022 7.5079090206953145 79.688252970010012 0.46070000000000005 35.204516600000012 8.8182740249989333 6.5819179105356955 51.53271486225001 0.56310000000000004 0.6925 9.0783391206859303 8.57629375376567 7.7480808866462061 10.557416050480994 7.7125773690472794 7.5187284448857152 71.149720868220015 10.986263933333335\ndecision_type=2 2 2 2 2 2 2 2 2 2 2 2 2 2 2 2 2 2 2 2 2 2 2 2 2\nleft_child=2 7 3 4 11 19 -7 14 9 21 -5 23 -13 -12 -2 22 -8 18 -18 -3 -19 -4 -11 -1 -10\nright_child=1 5 8 10 -6 6 16 -9 24 15 13 12 -14 -15 -16 -17 17 20 -20 -21 -22 -23 -24 -25 -26\nleaf_value=0.18025327011276041 0.078668203879903725 -0.010619086500111986 -0.1564473630079482 0.28265165198961584 -0.23047475938669187 0.28166872127316611 0.13951008071532514 0.023919102340496986 -0.07455895484143972 0.088342178581554243 -0.07194751029666939 0.075535164863816673 -0.23716888448795095 0.17353631365380204 0.31510595136593822 -0.18903481970603458 0.025758153661301034 0.041266573862790479 -0.13536157707972638 -0.21841562919152083 -0.053143401790426904 -0.36496482074241715 -0.084904669533133637 0.028567491732880791 0.074330565041382926\nleaf_weight=28 25 25 28 30 36 27 32 39 28 25 25 25 26 30 39 34 39 269 101 35 92 26 27 38 31\nleaf_count=28 25 25 28 30 36 27 32 39 28 25 25 25 26 30 39 34 39 269 101 35 92 26 27 38 31\ninternal_value=0 0.0183869 -0.0344838 0.0235395 -0.0424461 -0.00357211 0.0104549 0.149902 -0.10384 -0.148908 0.14196 0.0162726 -0.0844883 0.0620079 0.225113 -0.0766494 -0.00360681 -0.0129931 -0.090392 -0.133454 0.017074 -0.26091 -0.00104287 0.0946012 0.00318216\ninternal_weight=0 723 437 238 153 620 560 103 199 140 85 117 51 55 64 86 533 501 140 60 361 54 52 66 59\ninternal_count=1160 723 437 238 153 620 560 103 199 140 85 117 51 55 64 86 533 501 140 60 361 54 52 66 59\nis_linear=0\nshrinkage=0.0981432\n\n\nTree=11\nnum_leaves=31\nnum_cat=0\nsplit_feature=5 5 5 0 5 0 5 6 3 3 0 0 0 0 0 0 5 6 0 2 0 6 6 0 6 3 2 5 6 1\nsplit_gain=86.1398 319.828 464.213 247.642 192.385 233.956 181.872 174.276 163.405 109.695 107.527 99.9633 131.901 169.058 166.254 145.876 86.4836 85.5567 80.0672 75.4086 68.1559 93.9312 65.1869 64.0766 53.2446 51.3331 20.842 28.7333 19.931 12.8966\nthreshold=0.51410000000000011 0.61870000000000014 0.6761250000000002 7.5564921672048326 0.4411000000000001 6.4308614807562963 0.46070000000000005 41.820714600000009 87.796968232600008 62.980056074820013 6.7421888239092516 9.0945054727757988 8.6501207685622408 8.2297643258941182 7.9305894549501428 8.3676944057169909 0.86270000000000013 22.629245600000004 7.9305894549501428 8.3486427819077669 8.8866834739959177 6.1469134000000007 2.0780190000000003 5.8429194866452976 4.3636671000000016 61.530924641340007 9.1553890450048012 0.88970000000000005 2.1777399000000006 -3.030450893750976\ndecision_type=2 2 2 2 2 2 2 2 2 2 2 2 2 2 2 2 2 2 2 2 2 2 2 2 2 2 2 2 2 2\nleft_child=4 3 18 8 5 7 -6 23 9 -2 -8 12 13 14 -4 -15 22 -10 19 -3 21 -14 25 -1 -24 -13 27 -18 -28 -20\nright_child=1 2 11 -5 6 -7 10 -9 17 -11 -12 16 20 15 -16 -17 26 -19 29 -21 -22 -23 24 -25 -26 -27 28 -29 -30 -31\nleaf_value=-0.20870108830922515 0.15079302801671146 -0.14680286704565221 -0.048052145777340675 -0.050577617014997599 -0.35076539289391379 0.22356371421655183 0.037790422742059432 0.16369153223180194 0.20126422592691973 0.41849804814242952 -0.18108974700471969 -0.037052629303339912 0.36508691591198295 -0.27787627205893878 0.25098278834575671 0.0075406964803560236 0.012243872224384238 -0.040458740856536633 -0.13934172219071594 -0.35238886069061037 0.053332176997414778 0.11127003481019522 -0.13671970103358691 -0.038070031324318215 -0.0070501367586096701 0.12108951320375115 -0.061701161036880829 0.12951740429494132 0.059281545700376463 -0.037004950880923738\nleaf_weight=40 26 36 32 49 30 40 43 27 28 39 42 58 25 26 39 48 36 27 25 37 39 34 89 46 47 29 25 47 26 25\nleaf_count=40 26 36 32 49 30 40 43 27 28 39 42 58 25 26 39 48 36 27 25 37 39 34 89 46 47 29 25 47 26 25\ninternal_value=0 0.0131297 -0.0152857 0.134385 -0.0502453 0.0217301 -0.145757 -0.0504759 0.209976 0.314725 -0.070686 0.0203459 0.0688171 0.00899897 0.116736 -0.0941509 -0.0126477 0.0831685 -0.188392 -0.253857 0.156325 0.222457 -0.0500912 -0.118842 -0.0923812 0.0159393 0.0494023 0.0795249 0 -0.0899807\ninternal_weight=0 892 723 169 268 153 115 113 120 65 85 600 243 145 71 74 357 55 123 73 98 59 223 86 136 87 134 83 51 50\ninternal_count=1160 892 723 169 268 153 115 113 120 65 85 600 243 145 71 74 357 55 123 73 98 59 223 86 136 87 134 83 51 50\nis_linear=0\nshrinkage=0.0981432\n\n\nTree=12\nnum_leaves=31\nnum_cat=0\nsplit_feature=5 5 5 0 6 5 5 0 0 0 0 0 6 1 0 0 0 5 3 2 6 3 2 3 6 6 6 3 1 1\nsplit_gain=148.868 643.286 505.62 324.542 319.173 241.865 335.109 309.336 239.759 196.281 180.148 281.231 179.143 167.106 156.802 252.283 243.891 126.156 115.448 106.291 102.65 86.4195 97.5158 70.5554 65.7545 64.8078 64.0233 57.8933 41.7253 42.3317\nthreshold=0.61630000000000018 0.67410000000000025 0.52050000000000007 7.6880638968951347 19.254276100000002 0.4411000000000001 0.46070000000000005 6.2837548500730618 6.3302737523531443 8.2297643258941182 8.9275588912703014 8.7102973508961821 40.474373500000006 -3.254752008510549 8.2297643258941182 8.3676944057169909 7.9943540453913426 0.3483 77.748414967216675 7.1044886649740198 2.0364649000000004 63.820625909980016 7.9757517851865618 74.328176248940011 6.1974950000000009 3.1286227000000006 26.351320100000006 75.845755550080014 1.0439090953118848 -0.94884521206198058\ndecision_type=2 2 2 2 2 2 2 2 2 2 2 2 2 2 2 2 2 2 2 2 2 2 2 2 2 2 2 2 2 2\nleft_child=2 9 5 4 -4 7 -7 12 -8 13 11 14 17 -2 16 -16 -3 -1 -15 -10 28 22 -22 -17 -13 -23 -6 -27 29 -12\nright_child=1 10 3 -5 26 6 8 -9 19 -11 20 24 -14 18 15 23 -18 -19 -20 -21 21 25 -24 -25 -26 27 -28 -29 -30 -31\nleaf_value=0.29415179002270203 0.49641020959858734 0.034789366260923799 -0.4242520640286736 0.079536152617420475 -0.0057679886752554522 0.41338998439986568 -0.21004985616724356 -0.24741425143816609 -0.0057249648654777198 0.015671413878605895 -0.021880535858840727 -0.39349731608063643 -0.1565571097188799 0.060323063274617492 0.31667636242632258 0.041241554328931104 -0.31489546439324406 0.02791309111655399 0.33052171405302777 0.2354838066525215 0.23793380595027921 0.1140984324445935 0.057947985089839373 -0.16378817606762033 -0.16577663251800867 -0.17888056838672858 -0.2105001764390948 0.025502636325360775 0.071726379364154214 -0.14529950617008425\nleaf_weight=27 29 41 60 33 32 30 26 51 30 31 111 26 29 29 26 40 35 46 33 41 44 26 86 26 27 25 27 27 31 35\nleaf_count=27 29 41 60 33 32 30 26 51 30 31 111 26 29 29 26 40 35 46 33 41 44 26 86 26 27 25 27 27 31 35\ninternal_value=0 0.0255537 -0.0471161 -0.190785 -0.265996 0.0310799 0.130876 -0.0518181 0.0407582 0.230459 -0.0158856 -0.0863871 0.0468036 0.302623 -0.0235943 0.0622021 -0.127393 0.12871 0.206765 0.134192 0.0246042 0.0712779 0.120072 -0.0400558 -0.281867 -0.0100756 -0.10135 -0.073393 -0.0301645 -0.0522314\ninternal_weight=0 728 432 152 119 280 127 153 97 122 606 221 102 91 168 92 76 73 62 71 385 208 130 66 53 78 59 52 177 146\ninternal_count=1160 728 432 152 119 280 127 153 97 122 606 221 102 91 168 92 76 73 62 71 385 208 130 66 53 78 59 52 177 146\nis_linear=0\nshrinkage=0.0981432\n\n\nTree=13\nnum_leaves=31\nnum_cat=0\nsplit_feature=5 5 5 0 6 0 0 5 5 0 0 0 0 0 0 1 6 3 5 5 3 0 6 6 3 3 0 3 0 1\nsplit_gain=133.428 1153.09 581.81 566.156 354.663 351.855 325.805 289.306 378.9 208.863 195.792 342.483 247.343 150.812 142.51 162.936 117.744 110.468 114.795 105.003 101.642 99.4063 90.3829 121.463 47.2692 46.2392 51.1357 40.0634 23.8304 11.8897\nthreshold=0.61630000000000018 0.67410000000000025 0.54280000000000006 7.6880638968951347 18.981457633333338 8.9275588912703014 8.7102973508961821 0.4411000000000001 0.46070000000000005 6.2837548500730618 8.2297643258941182 8.3676944057169909 7.9943540453913426 6.2837548500730618 8.2297643258941182 -3.030450893750976 6.2230384666666678 79.209349195550018 0.3645000000000001 0.49470000000000003 79.360554181370006 9.5344244536328393 3.0944916000000005 2.0556167000000003 74.818118239050008 62.980056074820013 9.2187805463783103 51.53271486225001 6.6002367680729819 -2.0821889886050529\ndecision_type=2 2 2 2 2 2 2 2 2 2 2 2 2 2 2 2 2 2 2 2 2 2 2 2 2 2 2 2 2 2\nleft_child=2 14 7 4 -4 6 10 9 -9 17 12 -12 -3 -10 15 -2 -8 18 -1 -15 -17 25 23 -23 -13 26 -7 -21 -11 -25\nright_child=1 5 3 -5 -6 21 16 8 13 28 11 24 -14 19 -16 20 -18 -19 -20 27 -22 22 -24 29 -26 -27 -28 -29 -30 -31\nleaf_value=-0.050703911525211316 -0.54685216706729367 0.0096037085826727146 0.52462177259987075 -0.15799069116793296 0.13618039661045839 -0.23589801841694902 0.48013631447048022 -0.43128573119486352 0.1606522839016917 0.29558728580277005 -0.33365454506637127 0.015520476892887521 0.36368493498245097 -0.22605769010278137 -0.11487197813382097 -0.12435610563780033 0.17898299413406329 -0.12809004452710249 0.2253425663036496 0.067168125789088165 -0.38500531214711997 0.01816351396244599 0.11816863603645278 -0.094249727873390463 0.18631798358854515 -0.030160777605336097 -0.059803890547990249 -0.088024533798910884 0.14967104552665805 -0.19458140684951228\nleaf_weight=31 31 41 48 28 44 36 27 30 26 26 26 41 35 39 31 29 26 45 26 27 31 164 53 25 25 48 30 37 25 29\nleaf_count=31 31 41 48 28 44 36 27 30 26 26 26 41 35 39 31 29 26 45 26 27 31 164 53 25 25 48 30 37 25 29\ninternal_value=0 -0.0271274 0.0416708 0.224636 0.341704 0.0283599 0.12687 -0.0289821 -0.121478 0.0670917 0.0591064 -0.0369396 0.174949 -0.0471731 -0.301465 -0.363301 0.337399 -0.0140396 0.0760331 -0.100661 -0.262514 -0.0282544 0.00405989 -0.0238684 0.0819622 -0.104831 -0.157803 -0.0221267 0.227739 -0.150518\ninternal_weight=0 728 432 120 92 606 221 312 159 153 168 92 76 129 122 91 53 102 57 103 60 385 271 218 66 114 66 64 51 54\ninternal_count=1160 728 432 120 92 606 221 312 159 153 168 92 76 129 122 91 53 102 57 103 60 385 271 218 66 114 66 64 51 54\nis_linear=0\nshrinkage=0.0981432\n\n\nTree=14\nnum_leaves=31\nnum_cat=0\nsplit_feature=5 5 5 0 0 0 5 5 6 0 0 0 0 0 0 6 0 5 3 1 6 0 6 6 0 3 6 3 3 2\nsplit_gain=167.335 1472.33 644.649 800.6 428.436 387.821 236.023 514.436 211.333 203.827 184.089 178.365 426.964 240.914 153.661 134.374 104.65 129.311 101.532 92.9374 70.5481 59.4772 41.7835 94.6436 35.1519 30.5444 26.418 30.8077 17.5829 0.790865\nthreshold=0.67410000000000025 0.61630000000000018 0.55500000000000005 7.6880638968951347 8.9275588912703014 8.7102973508961821 0.4411000000000001 0.46210000000000012 21.848734400000001 5.9175796801605243 9.1682369473638072 8.2297643258941182 8.3676944057169909 7.9943540453913426 8.0211976714476396 6.3324177000000015 6.2837548500730618 0.49870000000000003 83.792779417030019 -1.6406654734508994 40.474373500000006 6.5126344519985881 3.0944916000000005 2.2482515000000007 9.72562614142924 66.493805805880029 5.6124100000000015 40.489870461730007 62.154141172290004 8.1325521951062338\ndecision_type=2 2 2 2 2 2 2 2 2 2 2 2 2 2 2 2 2 2 2 2 2 2 2 2 2 2 2 2 2 2\nleft_child=1 2 6 8 5 11 9 -8 -4 20 -6 13 -13 -2 19 -7 -9 -18 21 -3 -1 -11 23 24 -12 -14 27 -24 -26 -25\nright_child=4 14 3 -5 10 15 7 16 -10 18 22 12 25 -15 -16 -17 17 -19 -20 -21 -22 -23 26 29 28 -27 -28 -29 -30 -31\nleaf_value=-0.018517615311131868 -0.018983082273637698 0.52198876793456028 -0.52497887444866997 0.2090242749630257 0.20364851820262583 -0.52254883418288955 0.43053147842051565 -0.16590333023746509 -0.17537890376103585 -0.34090461827072782 0.095617581162748169 0.35134741848133355 -0.03707865930651881 -0.36866710117430646 0.19267609772283709 -0.19952551492401507 0.19621455659427808 -0.022322060373201405 -0.019923840959987976 0.28518590207111782 0.18531513469578773 -0.12872450230924992 -0.020551439142111907 0.15842286647657355 -0.012892183116401706 -0.1730370452968896 0.020413253101622654 -0.15550283772489062 -0.099039499933432779 0.11215979772881474\nleaf_weight=44 41 43 53 26 48 28 35 25 26 30 25 26 30 35 47 25 39 75 29 32 25 25 33 26 137 36 30 33 27 26\nleaf_count=44 41 43 53 26 48 28 35 25 26 30 25 26 30 35 47 25 39 75 29 32 25 25 33 26 137 36 30 33 27 26\ninternal_value=0 0.0374638 -0.0476318 -0.258304 -0.0371127 -0.145806 0.0203662 0.0984202 -0.412952 -0.0682764 0.0253724 -0.0718477 0.0198987 -0.182371 0.337468 -0.375525 0.0127658 0.052996 -0.170385 0.425082 0.0561426 -0.247927 -0.000333512 0.0214024 -0.0108672 -0.112731 -0.0549176 -0.0893996 -0.0276167 0.137693\ninternal_weight=0 554 432 105 606 221 327 174 79 153 385 168 92 76 122 53 139 114 84 75 69 55 337 241 189 66 96 66 164 52\ninternal_count=1160 554 432 105 606 221 327 174 79 153 385 168 92 76 122 53 139 114 84 75 69 55 337 241 189 66 96 66 164 52\nis_linear=0\nshrinkage=0.0981432\n\n\nTree=15\nnum_leaves=31\nnum_cat=0\nsplit_feature=5 5 5 0 0 0 5 5 0 5 0 6 0 0 0 6 0 1 1 0 3 5 1 6 6 6 1 6 5 2\nsplit_gain=226.133 1730.98 643.774 555.305 527.647 434.72 275.632 410.537 240.66 225.788 194.055 182.908 175.742 513.781 245.727 127.341 119.924 180.071 141.273 109.175 100.272 97.9082 56.2831 41.0846 108.711 37.207 39.3257 28.112 18.379 16.0111\nthreshold=0.67410000000000025 0.61870000000000014 0.52050000000000007 8.9275588912703014 7.6880638968951347 8.7102973508961821 0.4411000000000001 0.46210000000000012 7.9305894549501428 0.56050000000000011 9.0945054727757988 6.2230384666666678 8.2297643258941182 8.3676944057169909 7.9943540453913426 21.767967833333341 5.9410744662825801 -2.8629827977763722 -3.9218270956744141 6.3537860008735771 57.871363741950013 0.50290000000000012 -1.7170647626285633 2.1777399000000006 3.0944916000000005 5.9907791000000019 -1.9694772366462245 6.7074814666666676 0.88310000000000011 7.7837949261098851\ndecision_type=2 2 2 2 2 2 2 2 2 2 2 2 2 2 2 2 2 2 2 2 2 2 2 2 2 2 2 2 2 2\nleft_child=1 2 6 5 9 12 16 -8 22 -4 -5 -7 14 -14 -2 -11 18 20 -1 -9 -18 -21 -3 28 29 26 -26 -15 -12 -25\nright_child=3 8 4 10 -6 11 7 19 -10 15 23 -13 13 27 -16 -17 17 -19 -20 21 -22 -23 -24 24 25 -27 -28 -29 -30 -31\nleaf_value=-0.17083831610575012 0.029766662712275294 -0.58214650581812366 0.13333385565906264 -0.27659613811289885 -0.12565814542426104 0.58443904093463095 -0.43495762956237999 0.12532521006323086 -0.20333745081083912 0.50552904906122675 0.044281077950511234 0.2104938019904766 -0.36954149630087141 0.056407198564145042 0.38318193516331173 0.21919820287204139 0.35651038921894057 -0.090757682801908116 0.10060960312820716 -0.20738217815244137 0.088496486445265435 0.033265796458881933 -0.37617526864977452 -0.21496020465580459 -0.0068440270990457628 -0.088372183114963365 0.13125638585444402 0.19096662476634405 -0.018701660829918001 -0.10402654094266056\nleaf_weight=40 41 39 49 28 36 27 35 26 47 47 116 26 26 26 35 25 27 25 33 39 28 27 31 25 55 27 30 40 71 33\nleaf_count=40 41 39 49 28 36 27 35 26 47 47 116 26 26 26 35 25 27 25 33 39 28 27 31 25 55 27 30 40 71 33\ninternal_value=0 -0.0467715 0.0430932 0.0399235 0.201716 0.163668 -0.0460528 -0.152552 -0.380801 0.299504 -0.0312191 0.40692 0.0853213 -0.00583107 0.194997 0.409719 0.0424865 0.125059 -0.0479943 -0.0422121 0.223532 -0.109265 -0.496202 -0.0113668 -0.0462343 0.0101942 0.042304 0.139568 0.0202482 -0.154401\ninternal_weight=0 554 437 606 157 221 280 127 117 121 385 53 168 92 76 72 153 80 73 92 55 66 70 357 170 112 85 66 187 58\ninternal_count=1160 554 437 606 157 221 280 127 117 121 385 53 168 92 76 72 153 80 73 92 55 66 70 357 170 112 85 66 187 58\nis_linear=0\nshrinkage=0.0981432\n\n\nTree=16\nnum_leaves=31\nnum_cat=0\nsplit_feature=5 5 5 0 0 5 0 0 0 6 5 0 0 0 0 3 5 0 6 6 3 0 6 6 1 2 0 1 6 1\nsplit_gain=255.744 2267.29 662.191 572.862 519.401 485.462 450.249 283.957 241.147 198.579 198.415 163.795 557.475 271.852 160.764 160.938 160.356 106.303 76.1258 75.5096 53.5759 41.4056 41.6222 75.0884 39.9293 34.6213 32.1739 23.4289 16.933 15.0306\nthreshold=0.67410000000000025 0.62130000000000007 0.50470000000000015 8.9275588912703014 7.6880638968951347 0.43760000000000004 8.7102973508961821 7.960635770553548 9.0945054727757988 6.2230384666666678 0.55730000000000013 8.2297643258941182 8.3676944057169909 7.9943540453913426 5.9880646086817455 51.010384667475009 0.46070000000000005 6.7989270344025643 19.254276100000002 8.2985190666666693 62.980056074820013 9.2348103348977766 2.0780190000000003 3.0492565000000007 -1.7444037112695974 7.8456331115377376 10.106901531243775 -3.1439099112497537 1.3926775000000002 -1.5206676136582011\ndecision_type=2 2 2 2 2 2 2 2 2 2 2 2 2 2 2 2 2 2 2 2 2 2 2 2 2 2 2 2 2 2\nleft_child=1 2 5 6 10 14 11 24 -5 -8 20 13 -13 -2 25 -16 -7 -18 -12 -14 -4 -10 28 26 -3 -1 -24 -25 -23 -30\nright_child=3 7 4 8 -6 16 9 -9 21 -11 18 12 19 -15 15 -17 17 -19 -20 -21 -22 22 23 27 -26 -27 -28 -29 29 -31\nleaf_value=0.09111616022202626 -0.023715427636783509 0.64103528348573302 -0.26507417226102242 0.30025323338401017 0.12474819866659413 0.38116564907889183 -0.60362688551395216 0.23461784674543426 -0.093958997849947976 -0.21440787566895952 -0.46730100152807491 0.37555429876467211 -0.056060410877872668 -0.39521575819494908 -0.36140428408523839 -0.054104343899009429 0.013021479511769778 0.25593711741787784 -0.26034457634325486 -0.26815678630045436 -0.08390233572130873 0.0089031144406536006 0.21865210023216902 0.039353589235311522 0.44789660128223124 -0.038909919247586147 0.061972085688257218 -0.062978933732265735 -0.085425804562912572 0.0077307427776806088\nleaf_weight=43 41 39 25 28 39 35 27 43 36 26 45 26 36 35 26 44 39 31 35 30 45 107 28 56 30 35 25 34 46 25\nleaf_count=43 41 39 25 28 39 35 27 43 36 26 45 26 36 35 26 44 39 31 35 30 45 107 28 56 30 35 25 34 46 25\ninternal_value=0 0.0466848 -0.0533848 -0.0455118 -0.192032 0.0503443 -0.171192 0.439589 0.0267541 -0.418772 -0.274778 -0.0914332 -0.00280776 -0.19731 -0.0639814 -0.171208 0.211056 0.122526 -0.380306 -0.154771 -0.151079 0.00465163 0.0159836 0.0553144 0.563095 0.0326199 0.147111 0.00020583 -0.0155647 -0.0525165\ninternal_weight=0 554 442 606 189 253 221 112 385 53 150 168 92 76 148 70 105 70 80 66 70 357 321 143 69 78 53 90 178 71\ninternal_count=1160 554 442 606 189 253 221 112 385 53 150 168 92 76 148 70 105 70 80 66 70 357 321 143 69 78 53 90 178 71\nis_linear=0\nshrinkage=0.0981432\n\n\nTree=17\nnum_leaves=31\nnum_cat=0\nsplit_feature=5 5 5 0 0 0 5 6 0 0 5 6 5 0 0 2 3 5 2 1 5 2 0 3 0 6 6 5 1 5\nsplit_gain=310.777 2220.58 782.621 615.156 604.019 425.701 398.061 279.702 255.094 232.489 226.351 191.881 185.612 181.285 153.798 108.274 94.4431 83.3149 80.5986 109.626 109.881 69.0675 50.2874 43.7461 39.8467 37.2228 112.16 23.5842 30.5416 19.6912\nthreshold=0.67410000000000025 0.62130000000000007 0.50770000000000015 7.6880638968951347 8.9275588912703014 8.7102973508961821 0.43760000000000004 6.2230384666666678 9.0945054727757988 7.960635770553548 0.46070000000000005 8.8413651000000026 0.59150000000000003 6.7421888239092516 8.0211976714476396 6.6420202766896628 71.149720868220015 0.72250000000000014 6.7349368378888483 -5.3845005453346735 0.40990000000000004 7.0575412849090435 9.2187805463783103 83.356321839050011 10.106901531243775 3.0492565000000007 2.0780190000000003 0.87009999999999998 -4.1779971812314596 0.82620000000000005\ndecision_type=2 2 2 2 2 2 2 2 2 2 2 2 2 2 2 2 2 2 2 2 2 2 2 2 2 2 2 2 2 2\nleft_child=1 2 6 12 5 11 18 -7 -6 23 -8 21 15 -12 -13 -4 -17 -16 -1 -20 -21 -2 -10 -3 25 26 -24 -26 -29 -27\nright_child=4 9 3 -5 8 7 10 -9 22 -11 13 14 -14 -15 17 16 -18 -19 19 20 -22 -23 24 -25 27 29 -28 28 -30 -31\nleaf_value=0.19723600617959741 -0.14534967299021895 -0.63311041252988409 0.048776347848702342 -0.14471150181694931 -0.30842961564245697 0.63503493188596427 -0.41040441576850978 0.17810155936145555 0.1114475682200812 -0.25634783489921825 0.038228715630889309 0.022689831130471141 0.49233116399095883 -0.26445214046879173 0.4088681440704246 0.42864106373278876 0.20241737414345648 0.16345888683948409 0.14061745882151708 -0.14009150342861817 0.091710565723739423 0.049497437272581317 -0.017753762941475595 -0.43469528752785153 0.079390262404598233 0.035385913258540798 -0.25188343104741173 0.084014733726328478 -0.035302454586030187 -0.065251401240410123\nleaf_weight=25 25 40 26 39 28 27 35 26 32 43 39 32 34 36 29 28 57 28 39 54 30 54 64 29 45 53 28 27 80 28\nleaf_count=25 25 40 26 39 28 27 35 26 32 43 39 32 34 36 29 28 57 28 39 54 30 54 64 29 45 53 28 27 80 28\ninternal_value=0 -0.0545607 0.0444836 0.198753 0.0470732 0.176125 -0.0656909 0.416919 -0.0271339 -0.443387 -0.206477 0.0985058 0.29158 -0.107877 0.19672 0.226994 0.280308 0.29242 0.0392785 0.00597097 -0.0569164 -0.0126113 -0.00440434 -0.555605 -0.0161198 -0.0482843 -0.0907387 0.0203727 -0.00457906 0\ninternal_weight=0 554 442 184 606 221 258 53 385 112 110 168 145 75 89 111 85 57 148 123 84 79 357 69 325 173 92 152 107 81\ninternal_count=1160 554 442 184 606 221 258 53 385 112 110 168 145 75 89 111 85 57 148 123 84 79 357 69 325 173 92 152 107 81\nis_linear=0\nshrinkage=0.0981432\n\n\nTree=18\nnum_leaves=31\nnum_cat=0\nsplit_feature=5 5 5 0 0 0 6 5 0 5 0 5 3 6 0 0 0 2 3 0 5 5 1 1 0 6 6 5 6 5\nsplit_gain=378.746 2659.29 868.632 618.347 613.859 408.448 388.601 381.189 355.146 253.398 207.278 204.607 199.201 170.462 167.462 135.321 167.971 120.814 119.841 82.8733 78.9201 74.4266 82.2158 55.3348 28.0775 65.2639 87.7452 26.8163 19.656 16.9308\nthreshold=0.67410000000000025 0.62130000000000007 0.50770000000000015 8.9275588912703014 7.6880638968951347 8.7102973508961821 6.2230384666666678 0.43760000000000004 7.960635770553548 0.46070000000000005 9.0945054727757988 0.59150000000000003 60.416866822337504 7.3640328000000004 6.7989270344025643 7.9305894549501428 8.3676944057169909 7.7551694386889549 83.242487744960002 9.2348103348977766 0.55030000000000012 0.38500000000000006 -5.2342200892687796 -3.8114497459527157 10.040536080243534 3.2218770999999999 2.1777399000000006 0.87480000000000013 1.7817482000000002 0.80720000000000014\ndecision_type=2 2 2 2 2 2 2 2 2 2 2 2 2 2 2 2 2 2 2 2 2 2 2 2 2 2 2 2 2 2\nleft_child=1 2 7 5 11 13 -7 21 18 -9 -5 12 -4 17 -11 -15 -17 -2 -3 -12 -14 22 -1 -23 25 26 -21 -26 -29 -27\nright_child=3 8 4 10 -6 6 -8 9 -10 14 19 -13 20 15 -16 16 -18 -19 -20 24 -22 23 -24 -25 27 29 -28 28 -30 -31\nleaf_value=-0.1020076354121754 0.16658652203878174 0.74074908848836607 -0.46834129450863426 0.27359452121090155 0.12951406195834578 -0.67785463028946835 -0.14301850472270253 0.41821739760421134 0.25381945035286468 -0.031183586528075069 -0.14000856572564352 -0.51720494404922635 -0.27261168649085615 0.0014951686075817762 0.26147437950459379 -0.36399416779584698 -0.077780706382526557 -0.11546636887987587 0.44960184968003353 0.022043119141926013 -0.078005451869296416 -0.027966986948919945 0.10715660124094128 -0.2011597435269428 -0.062958771356642157 -0.087295724976796538 0.22223561239018189 0.049379692575449136 -0.037871499154136075 0.013415934331639465\nleaf_weight=28 29 39 27 28 39 27 26 35 43 42 36 34 35 29 33 47 35 28 30 55 49 39 48 33 62 27 34 68 38 37\nleaf_count=28 29 39 27 28 39 27 26 35 43 42 36 34 35 29 33 47 35 28 30 55 49 39 48 33 62 27 34 68 38 37\ninternal_value=0 0.0571471 -0.0512419 -0.0550519 -0.21376 -0.185618 -0.421566 0.064841 0.482653 0.202611 0.020041 -0.306458 -0.238665 -0.109501 0.0985377 -0.179997 -0.24394 0.0278749 0.620667 -0.00029787 -0.161078 -0.0378784 0.0295121 -0.10895 0.0155754 0.0459243 0.100019 -0.0119881 0.0178086 -0.0291785\ninternal_weight=0 554 442 606 184 221 53 258 112 110 385 145 111 168 75 111 82 57 69 357 84 148 76 72 321 153 89 168 106 64\ninternal_count=1160 554 442 606 184 221 53 258 112 110 385 145 111 168 75 111 82 57 69 357 84 148 76 72 321 153 89 168 106 64\nis_linear=0\nshrinkage=0.0981432\n\n\nTree=19\nnum_leaves=31\nnum_cat=0\nsplit_feature=5 5 5 0 0 5 0 6 0 5 0 0 5 3 0 2 3 5 5 0 0 1 0 6 3 2 2 6 0 1\nsplit_gain=376.966 2640.03 927.424 641.603 611.163 433.206 416.286 437.935 369.339 333.718 292.034 606.299 254.773 204.273 193.952 113.366 111.166 95.7751 95.7593 79.517 79.1843 56.6877 56.1341 59.937 52.0634 49.5191 47.6871 38.1507 28.2221 9.68038\nthreshold=0.67410000000000025 0.62130000000000007 0.50770000000000015 8.9275588912703014 7.6880638968951347 0.43760000000000004 8.7102973508961821 6.2230384666666678 7.960635770553548 0.59150000000000003 8.2297643258941182 7.9305894549501428 0.46070000000000005 67.684198347600017 9.0945054727757988 7.7725610900725073 84.029567407592523 0.55500000000000005 0.39360000000000006 9.2187805463783103 6.7989270344025643 -5.5613386563160416 9.9992985793641758 4.3636671000000016 62.154141172290004 6.3848080472096767 7.8118410008750088 35.913613433333346 10.846626747120862 -1.0608462334497888\ndecision_type=2 2 2 2 2 2 2 2 2 2 2 2 2 2 2 2 2 2 2 2 2 2 2 2 2 2 2 2 2 2\nleft_child=1 2 5 6 9 18 10 -8 16 13 11 -2 -7 -4 -5 -12 -3 -15 21 -16 -14 -1 23 25 -17 -21 -20 -23 29 -24\nright_child=3 8 4 14 -6 12 7 -9 -10 -11 15 -13 20 17 19 24 -18 -19 26 22 -22 27 28 -25 -26 -27 -28 -29 -30 -31\nleaf_value=0.093076619115000203 -0.04999467593427824 -0.73072340410056058 0.44464599728089133 -0.2697560803216153 -0.12653616800475778 -0.43505513612132396 0.6950560043132783 0.12846172048143956 -0.25078917508563675 0.5759754881682716 -0.14386981569702953 0.50227301135135927 -0.023073091317461707 0.256622866957124 0.14106791010550604 -0.023354551974755368 -0.44332692783985805 0.042908036012926302 0.20451801038504416 0.0018052719286595165 -0.22622757305262439 -0.14599609232009086 0.054782916841805772 0.056324333851110742 0.16396868520346447 -0.13643104053882207 0.02949369747690676 0.0091080990959018712 -0.053493403068318346 -0.0042964362579479502\nleaf_weight=25 35 42 29 28 39 35 27 26 43 34 36 41 42 37 32 26 27 45 35 35 33 35 101 31 30 83 27 26 40 35\nleaf_count=25 35 42 29 28 39 35 27 26 43 34 36 41 42 37 32 26 27 45 35 35 33 35 101 31 30 83 27 26 40 35\ninternal_value=0 -0.0599199 0.0480801 0.0520152 0.216014 -0.0718606 0.185018 0.423202 -0.48388 0.308503 0.108191 0.249571 -0.218722 0.223061 -0.0244723 -0.00937967 -0.624551 0.141094 0.0376627 -0.00464147 -0.114148 -0.0291208 -0.0193575 -0.063576 0.0773648 -0.0954519 0.129967 -0.0801445 0.0180382 0.0394453\ninternal_weight=0 554 442 606 184 258 221 53 112 145 168 76 110 111 385 92 69 82 148 357 75 86 325 149 56 118 62 61 176 136\ninternal_count=1160 554 442 606 184 258 221 53 112 145 168 76 110 111 385 92 69 82 148 357 75 86 325 149 56 118 62 61 176 136\nis_linear=0\nshrinkage=0.0981432\n\n\nTree=20\nnum_leaves=30\nnum_cat=0\nsplit_feature=5 5 5 0 0 5 0 5 6 0 5 3 0 0 0 2 5 0 5 6 0 2 2 3 0 2 2 1 2\nsplit_gain=362.53 2692.75 926.879 704.281 612.258 443.185 418.06 369.928 369.176 312.55 272.795 256.407 253.9 700.728 198.818 172.036 115.393 96.4185 94.9823 64.4281 56.0456 54.4825 60.7132 50.6744 36.7769 31.2535 26.5268 21.6085 11.9154\nthreshold=0.67410000000000025 0.62130000000000007 0.50770000000000015 8.9275588912703014 7.6880638968951347 0.43760000000000004 8.7102973508961821 0.59150000000000003 6.2230384666666678 7.960635770553548 0.46070000000000005 67.684198347600017 8.2693351272062241 7.9305894549501428 9.0945054727757988 7.7725610900725073 0.55500000000000005 9.2558897181369524 0.39020000000000005 36.892615900000003 9.9223489185381144 6.7349368378888483 8.1325521951062338 84.029567407592523 6.4308614807562963 9.6335988768516252 4.5118208700925067 -1.3850097354687156 7.7661827796514595\ndecision_type=2 2 2 2 2 2 2 2 2 2 2 2 2 2 2 2 2 2 2 2 2 2 2 2 2 2 2 2 2\nleft_child=1 2 5 6 7 18 12 11 -8 23 -7 -4 13 -2 -5 -14 -13 -16 19 -1 21 -19 -23 -3 -12 -17 -22 -28 -20\nright_child=3 9 4 14 -6 10 8 -9 -10 -11 24 16 15 -15 17 25 -18 20 28 -21 26 22 -24 -25 -26 -27 27 -29 -30\nleaf_value=0.099401261265991095 0.095081285303907942 0.6926518626972904 -0.47166267389264571 0.2746085500943925 0.12186423342849745 0.4390386112589385 -0.68197273474344999 -0.59502662809736184 -0.15964617746611887 0.26836040382439502 0.011237630500998365 -0.25904525825074781 0.16817826099739891 -0.4782640200413048 -0.13587805121518176 -0.032404790390301155 -0.025153913699305051 -0.016206923776274761 -0.17294673100177935 -0.076893228955463869 0.084867395277113442 0.24137403090687695 0.060509812490499949 0.47505262630179212 0.15675432740139428 -0.18914408803194999 -0.0044508491068145205 -0.092336103800073455 -0.084503266869411967\nleaf_weight=48 35 42 29 28 39 35 27 34 26 43 26 37 35 48 40 25 45 40 33 33 25 27 54 27 49 25 138 33 34\nleaf_count=48 35 42 29 28 39 35 27 34 26 43 26 37 35 48 40 25 45 40 33 33 25 27 54 27 49 25 138 33 34\ninternal_value=0 0.0558939 -0.053173 -0.0538769 -0.22105 0.0667417 -0.193224 -0.313613 -0.431966 0.484071 0.215297 -0.223802 -0.116184 -0.237477 0.0262617 0.00297754 -0.132384 0.00618104 -0.0440167 0.0272096 0.0244646 0.0767873 0.122763 0.613838 0.10726 -0.112912 -0.00787054 -0.0218899 -0.12987\ninternal_weight=0 554 442 606 184 258 221 145 53 112 110 111 168 83 385 85 82 357 148 81 317 121 81 69 75 50 196 171 67\ninternal_count=1160 554 442 606 184 258 221 145 53 112 110 111 168 83 385 85 82 357 148 81 317 121 81 69 75 50 196 171 67\nis_linear=0\nshrinkage=0.0981432\n\n\nTree=21\nnum_leaves=31\nnum_cat=0\nsplit_feature=5 5 5 0 5 0 5 5 0 0 6 0 0 5 3 2 0 5 0 3 0 5 3 6 2 2 3 0 5 1\nsplit_gain=395.123 2164.02 923.939 862.032 625.484 616.75 507.223 505.469 322.054 295.859 293.103 288.5 343.138 266.422 265.709 251.578 177.225 147.319 105.372 78.2018 76.766 69.881 61.4752 59.3075 49.5246 52.2218 37.9653 16.0678 11.5587 8.4976\nthreshold=0.6925 0.62130000000000007 0.50770000000000015 8.9275588912703014 0.67410000000000025 7.6880638968951347 0.59150000000000003 0.43760000000000004 8.7102973508961821 7.960635770553548 6.2230384666666678 8.2693351272062241 8.0211976714476396 0.46070000000000005 67.684198347600017 7.8605776406688905 9.0945054727757988 0.55500000000000005 9.2558897181369524 66.935115835190018 9.9116970199316601 0.38500000000000006 83.512434936630015 38.27778150000001 6.4551728783515356 8.2056654966375504 45.670709441320007 10.014163117605522 0.3483 0.1972430139893088\ndecision_type=2 2 2 2 2 2 2 2 2 2 2 2 2 2 2 2 2 2 2 2 2 2 2 2 2 2 2 2 2 2\nleft_child=1 2 7 8 9 6 14 21 11 22 -10 12 -2 -9 -4 -13 -5 -16 -18 -15 24 23 -3 28 -20 -26 -23 -22 -1 -29\nright_child=3 4 5 16 -6 -7 -8 13 10 -11 -12 15 -14 19 17 -17 18 -19 20 -21 27 26 -24 -25 25 -27 -28 29 -30 -31\nleaf_value=-0.12438720469401361 0.06910028584471134 -0.70877944085368572 0.459599437580754 -0.26592546894658348 -0.028600037558877644 -0.12501624240888107 0.64074117634904126 -0.44811365356290678 0.66665011967038168 -0.28433417726651078 0.18942686743862791 -0.18454946310730339 0.54675049645458151 -0.25523449774007984 0.25774733543906858 0.17340139860131737 0.14023145952307736 -0.0045455481051417806 0.0048299953879399849 -0.044814373383856389 0.077421551106116732 0.019105281572078161 -0.47782262003684062 0.10272594242870886 -0.22671418808810892 -0.064784602477924544 0.17028714917394888 0.0084104769844949127 -0.027918183144401119 -0.047737002333557148\nleaf_weight=25 29 41 29 27 37 39 34 35 26 43 25 32 29 26 37 44 40 45 36 49 28 25 28 26 33 48 47 141 25 31\nleaf_count=25 29 41 29 27 37 39 34 35 26 43 25 32 29 26 37 44 40 45 36 49 28 25 28 26 33 48 47 141 25 31\ninternal_value=0 -0.057597 0.0515102 0.0569079 -0.380085 0.219123 0.31203 -0.0682112 0.230506 -0.495015 0.439294 0.148866 0.312261 -0.226865 0.207524 0.0220153 -0.0269414 0.114737 -0.00827961 -0.119892 -0.0273856 0.0500738 -0.621513 -0.0152919 -0.0902819 -0.132536 0.118885 0.00947529 -0.0777844 -0.00171825\ninternal_weight=0 591 442 569 149 184 145 258 185 112 51 134 58 110 111 76 384 82 357 75 317 148 69 76 117 81 72 200 50 172\ninternal_count=1160 591 442 569 149 184 145 258 185 112 51 134 58 110 111 76 384 82 357 75 317 148 69 76 117 81 72 200 50 172\nis_linear=0\nshrinkage=0.0981432\n\n\nTree=22\nnum_leaves=31\nnum_cat=0\nsplit_feature=5 5 5 0 5 5 5 5 0 0 0 6 5 0 2 0 0 0 0 5 1 0 3 3 2 2 0 6 0 0\nsplit_gain=353.883 2359.51 921.555 757.326 459.922 355.608 560.406 392.336 304.829 288.483 282.859 333.569 243.065 222.267 354.11 317.833 164.046 132.655 80.5458 79.3259 72.038 69.4034 67.6992 50.4426 45.7393 53.9609 45.3534 25.5925 13.0039 9.70154\nthreshold=0.69110000000000016 0.62130000000000007 0.59150000000000003 8.9275588912703014 0.67410000000000025 0.50770000000000015 0.43760000000000004 0.55500000000000005 7.960635770553548 7.5564921672048326 8.7102973508961821 6.2230384666666678 0.46070000000000005 8.2693351272062241 7.8858282372835484 8.0211976714476396 9.0945054727757988 9.2558897181369524 9.8861780120133425 0.37300000000000005 -3.0954789615180656 7.1279217269318256 83.242487744960002 87.084795057160008 6.4551728783515356 8.1580518069736048 5.7040994125773006 2.6958181666666672 6.209830301924117 10.268302900862478\ndecision_type=2 2 2 2 2 2 2 2 2 2 2 2 2 2 2 2 2 2 2 2 2 2 2 2 2 2 2 2 2 2\nleft_child=1 2 5 10 8 6 19 21 22 -4 13 -12 -8 15 -15 -2 -5 -18 24 26 -14 -7 -3 -9 -19 -26 -1 29 -21 -20\nright_child=3 4 9 16 -6 7 12 23 -10 -11 11 -13 20 14 -16 -17 17 18 27 28 -22 -23 -24 -25 25 -27 -28 -29 -30 -31\nleaf_value=-0.05689253801466046 -0.05579591596027262 0.71412875346589111 -0.66440146413926437 0.25326997567878906 0.060413050084401454 -0.38088877906814861 0.43769532936223582 -0.032391048399735271 0.27642224828825795 -0.19463297350855915 -0.65405512166013136 -0.15298860923571864 0.22535846364579079 0.20507836815611788 -0.21249090038164109 -0.50372528730266763 -0.16124479356915822 -0.003456431840402078 0.037813602732090626 -0.16450118425508328 0.032029592653353055 -0.17103709081177609 0.47822494835877499 0.14468528955819274 0.23586192962266653 0.067965135482628863 0.11072960138509159 -0.088067896907761262 -0.084010484208972405 -0.011233088308860436\nleaf_weight=33 31 39 27 27 31 41 35 38 43 25 26 26 35 34 44 30 40 33 58 43 40 28 30 25 30 50 28 33 44 113\nleaf_count=33 31 39 27 27 31 41 35 38 43 25 26 26 35 34 44 30 40 33 58 43 40 28 30 25 30 50 28 33 44 113\ninternal_value=0 0.0522687 -0.0599163 -0.0560804 0.397726 -0.00776243 0.0591792 -0.138401 0.489844 -0.444962 -0.215391 -0.409695 0.226258 -0.140725 -0.0299221 -0.27992 0.0233539 0.0054028 0.026841 -0.0653329 0.12392 -0.298833 0.618115 0.0383302 0.0930425 0.13284 0.0200283 -0.00990511 -0.125147 0.00534082\ninternal_weight=0 585 442 575 143 390 258 132 112 52 191 52 110 139 78 61 384 357 317 148 75 69 69 63 113 80 61 204 87 171\ninternal_count=1160 585 442 575 143 390 258 132 112 52 191 52 110 139 78 61 384 357 317 148 75 69 69 63 113 80 61 204 87 171\nis_linear=0\nshrinkage=0.0981432\n\n\nTree=23\nnum_leaves=31\nnum_cat=0\nsplit_feature=5 5 5 0 0 0 5 5 5 0 6 2 0 5 0 0 2 5 0 6 5 0 3 0 2 5 6 0 2 6\nsplit_gain=410.218 2365.62 956.21 800.871 525.713 421.937 271.68 590.436 536.201 221.474 328.019 313.364 312.456 207.119 146.939 172.956 111.895 99.8975 97.7741 96.6372 85.6248 83.4038 80.7085 73.1858 55.222 51.2951 35.4873 28.2519 27.1301 18.666\nthreshold=0.69110000000000016 0.62130000000000007 0.59150000000000003 8.9275588912703014 7.5079090206953145 7.9305894549501428 0.50770000000000015 0.43760000000000004 0.55500000000000005 8.7102973508961821 6.2230384666666678 7.8728254906109401 8.2693351272062241 0.46070000000000005 9.0945054727757988 9.2558897181369524 7.1550387410655203 0.66990000000000016 6.8472978096281762 17.144933466666668 0.3645000000000001 9.9953135740505843 82.034625825900022 6.5308158737057989 6.4551728783515356 0.66615000000000013 9.5859862000000025 5.6346408059920767 8.0608603158795074 2.6958181666666672\ndecision_type=2 2 2 2 2 2 2 2 2 2 2 2 2 2 2 2 2 2 2 2 2 2 2 2 2 2 2 2 2 2\nleft_child=1 2 6 9 -4 17 7 20 18 11 -11 12 -2 -9 -5 -16 -15 22 -8 -10 27 24 -3 -22 -17 -7 -13 -1 -26 -23\nright_child=3 5 4 14 -6 25 8 13 19 10 -12 26 -14 16 15 21 -18 -19 -20 -21 23 29 -24 -25 28 -27 -28 -29 -30 -31\nleaf_value=0.045176396644819726 0.2119246102411482 -0.7492551449116116 0.76332854762634328 -0.24188358843343166 0.13736031089524833 -0.28627478272874496 0.45251727227964889 -0.4254463674972187 0.0066012762413710027 0.63571161268991194 0.13942924916789751 0.2344158224694429 -0.20430365954493487 0 0.18302248819776432 0.0054949283280637355 -0.23999397733192088 -0.36686649604236654 0.20407403407798641 -0.23891393464519062 0.18311917602567984 -0.00061274781910104997 -0.47197807840097733 -0.0076762971478469642 -0.20749350178471471 -0.10091374534005709 0.39148973687417737 -0.092295737110210704 -0.09205573628411437 0.089470617008113582\nleaf_weight=27 34 30 25 27 27 35 26 35 38 26 26 44 34 33 40 41 42 25 43 25 65 155 26 27 30 27 27 29 66 25\nleaf_count=27 34 30 25 27 27 35 26 35 38 26 26 44 34 33 40 41 42 25 43 25 65 155 26 27 30 27 27 29 66 25\ninternal_value=0 -0.0592414 0.0530979 0.0574136 0.445307 -0.405138 0 -0.0585028 0.114204 0.22124 0.393519 0.154856 0.0034687 -0.230003 -0.0242739 -0.00727516 -0.135177 -0.552364 0.301884 -0.0920585 0.0692981 -0.0317414 -0.628834 0.127227 -0.0892487 -0.208119 0.297944 -0.0258265 -0.129716 0.012069\ninternal_weight=0 585 442 575 52 143 390 258 132 191 52 139 68 110 384 357 75 81 69 63 148 317 56 92 137 62 71 56 96 180\ninternal_count=1160 585 442 575 52 143 390 258 132 191 52 139 68 110 384 357 75 81 69 63 148 317 56 92 137 62 71 56 96 180\nis_linear=0\nshrinkage=0.0981432\n\n\nTree=24\nnum_leaves=31\nnum_cat=0\nsplit_feature=5 5 5 0 0 0 5 5 5 0 2 0 0 2 0 5 1 0 6 5 2 0 0 5 3 3 1 0 0 2\nsplit_gain=365.439 2326.65 1027.2 859.304 600.905 447.552 298.447 597.596 551.266 180.97 170.631 310.722 295.029 170.559 163.542 107.607 99.0067 94.3701 86.721 82.5953 69.4008 62.7412 55.867 55.6075 42.1255 39.9768 31.7896 29.4669 17.9491 17.7178\nthreshold=0.69110000000000016 0.62130000000000007 0.59150000000000003 8.9275588912703014 7.5079090206953145 7.8749849927637925 0.50770000000000015 0.55500000000000005 0.43760000000000004 9.0945054727757988 7.8118410008750088 8.6958132808401132 8.2115781850198442 7.3825112929435193 9.2558897181369524 0.3483 -4.2347752569392254 9.9678453496133148 14.532496700000001 0.66440000000000021 6.4551728783515356 6.5618255051127505 6.5308158737057989 0.71500000000000008 69.271120695090005 80.260521678183338 -3.829112886956572 7.0556420920448355 10.891299990581411 4.8226133325121596\ndecision_type=2 2 2 2 2 2 2 2 2 2 2 2 2 2 2 2 2 2 2 2 2 2 2 2 2 2 2 2 2 2\nleft_child=1 2 6 10 -4 25 8 27 15 -5 11 12 -2 22 -11 -1 -15 20 -9 -7 -16 -17 -10 -12 -25 -3 -22 -8 29 -19\nright_child=3 5 4 9 -6 19 7 18 13 14 23 -13 -14 16 17 21 -18 28 -20 -21 26 -23 -24 24 -26 -27 -28 -29 -30 -31\nleaf_value=0.058208622884650577 -0.23473025680864648 0.63196114027803607 -0.80466434023368383 0.26915884323120909 -0.13599064756305154 0.30650186816635971 -0.38531036434210175 -0.028925657014284761 0.19879001325225998 -0.1762400175271869 -0.42114020854207984 -0.39478264456864742 0.1973001378234388 0.20848188682981991 -0.0097237245893758255 -0.16719156797393411 0.47764267058367665 0.045806853906345646 0.1996173084685452 0.082002729815145919 0.057265811063971488 0.005969040116584572 -0.00057249371120329676 -0.31473882678188619 -0.14832837925329989 0.45202807665156403 0.185675223365283 -0.23883416511175162 0.049731136012536495 -0.041878394555622721\nleaf_weight=46 27 42 25 27 27 34 37 29 25 40 33 27 33 30 40 75 27 26 34 31 29 27 28 45 26 36 60 32 36 126\nleaf_count=46 27 42 25 27 27 34 37 29 25 40 33 27 33 30 40 75 27 26 34 31 29 27 28 45 26 36 60 32 36 126\ninternal_value=0 0.0531518 -0.0582504 -0.0569521 -0.464761 0.396193 -0.00320244 -0.122898 0.0581119 0.0276616 -0.226652 -0.123162 0.00196094 0.223824 0.00880339 -0.0653775 0.340932 0.0325924 0.0948895 0.201966 0.0970022 -0.121387 0.0944221 -0.311488 -0.25633 0.554289 0.144946 -0.321019 -0.0116718 -0.0265577\ninternal_weight=0 585 442 575 52 143 390 132 258 384 191 87 60 110 357 148 57 317 63 65 129 102 53 104 71 78 89 69 188 152\ninternal_count=1160 585 442 575 52 143 390 132 258 384 191 87 60 110 357 148 57 317 63 65 129 102 53 104 71 78 89 69 188 152\nis_linear=0\nshrinkage=0.0981432\n\n\nTree=25\nnum_leaves=29\nnum_cat=0\nsplit_feature=5 5 5 0 0 0 5 5 5 2 0 0 0 0 0 5 2 0 2 6 1 3 3 3 0 1 2 3\nsplit_gain=408.204 2466.64 1239.64 872.086 756.572 417.128 333.515 594.334 573.355 258.008 210.42 248.36 196.674 160.759 165.212 141.27 126.742 99.8361 103.863 78.5326 75.6693 73.5379 54.3091 53.9284 48.4074 31.6627 17.9481 16.7099\nthreshold=0.69110000000000016 0.62130000000000007 0.59150000000000003 8.9183886003673312 7.5079090206953145 7.8749849927637925 0.50770000000000015 0.55500000000000005 0.43760000000000004 7.8605776406688905 8.6958132808401132 8.2115781850198442 8.5598540807893624 9.0945054727757988 9.2558897181369524 0.32740000000000008 7.2858011348181 9.9678453496133148 6.4551728783515356 12.714593800000001 -4.2347752569392254 67.684198347600017 62.980056074820013 65.771052260860017 6.4080010739671973 -4.0752463648339941 6.9534152990386824 42.517813599030006\ndecision_type=2 2 2 2 2 2 2 2 2 2 2 2 2 2 2 2 2 2 2 2 2 2 2 2 2 2 2 2\nleft_child=1 2 6 9 -4 23 8 21 15 10 11 -2 -11 -5 -15 -1 -10 18 -16 -9 -18 -8 -7 -3 -17 -20 -19 -28\nright_child=3 5 4 13 -6 22 7 19 16 12 -12 -13 -14 14 17 24 20 26 25 -21 -22 -23 -24 -25 -26 -27 27 -29\nleaf_value=-0.11084779900170245 0.2086827887361723 -0.69895950294538967 0.88343892196758467 -0.24234764688438923 0.13407291514943942 -0.104632062513232 0.19788549874134567 0.034038314762947212 -0.11762664031041949 0.47620625783385451 0.33977881634450574 -0.17372190441156912 0.19276387966517813 0.17766242985177791 0.031955314295076011 0.15940598135138748 -0.21148449550078813 -0.043352175184558188 -0.066912200817298068 -0.18604796591757933 -0.44164764464238515 0.41198630694753979 -0.29499152432882753 -0.48882583835764548 0.024384657666016531 -0.19689395719380196 0.0097352889295082325 0.085861482992778987\nleaf_weight=36 31 26 25 30 27 25 31 26 49 50 26 33 48 40 40 71 30 41 28 37 31 38 40 52 41 61 110 37\nleaf_count=36 31 26 25 30 27 25 31 26 49 50 26 33 48 40 40 71 30 41 28 37 31 38 40 52 41 61 110 37\ninternal_value=0 -0.0590864 0.0556256 0.0572819 0.5022 -0.412292 -0.00469035 0.121718 -0.0696295 0.230263 0.108533 0.0113675 0.340134 -0.0269621 -0.00832402 0.0563472 -0.238605 -0.032235 -0.0984865 -0.0954665 -0.332779 0.3193 -0.224183 -0.565128 0.110697 -0.157185 0.0132936 0.0294092\ninternal_weight=0 585 442 575 52 143 390 132 258 188 90 64 98 387 357 148 110 317 129 63 61 69 65 78 112 89 188 147\ninternal_count=1160 585 442 575 52 143 390 132 258 188 90 64 98 387 357 148 110 317 129 63 61 69 65 78 112 89 188 147\nis_linear=0\nshrinkage=0.0981432\n\n\nTree=26\nnum_leaves=28\nnum_cat=0\nsplit_feature=5 5 5 0 0 0 2 5 5 5 0 5 2 0 0 0 0 0 2 6 1 3 0 6 1 2 5\nsplit_gain=383.407 2362.04 1087.51 936.795 792.682 405.123 275.115 246.669 596.062 532.364 176.591 139.846 127.227 126.88 214.648 121.591 166.193 103.916 109.642 100.862 93.9798 74.6595 58.8251 45.7828 26.9505 14.8608 9.76669\nthreshold=0.6925 0.62130000000000007 0.59150000000000003 8.9183886003673312 7.5079090206953145 8.1707041684474522 8.1040694531724746 0.50770000000000015 0.55500000000000005 0.43760000000000004 8.5085095972898248 0.32740000000000008 7.2152669506033069 8.7102973508961821 8.1800080451834738 9.0945054727757988 9.2558897181369524 9.9223489185381144 6.4551728783515356 11.820255300000001 -4.1998841822867909 71.684729937580016 6.2705540539532398 14.398808800000003 -3.829112886956572 4.9646683175849775 0.83540000000000014\ndecision_type=2 2 2 2 2 2 2 2 2 2 2 2 2 2 2 2 2 2 2 2 2 2 2 2 2 2 2\nleft_child=1 2 7 6 -4 19 13 9 21 11 -8 -1 -11 14 -2 -5 -17 18 -18 -3 -14 -9 -13 -10 -20 -19 -27\nright_child=3 5 4 15 -6 -7 10 8 23 12 -12 22 20 -15 -16 16 17 25 24 -21 -22 -23 -24 -25 -26 26 -28\nleaf_value=0.097433575539787431 -0.26097748120100567 0.37469473420521321 -0.86834240622076952 0.21484985557656264 -0.10268961907115463 0.14095708362836337 -0.52322674679389236 -0.19492160494955219 0.0099458116430726513 0.083116430200618721 -0.22573671034873335 -0.18537824392096455 0.17981433461321453 -0.29899920470982128 0.082326429139370522 -0.17526068797320474 -0.033266349790969083 0.048263379950180478 0.082435235185930794 0.58755204358877178 0.42183221582535962 -0.40896794483444648 -0.040777303918519837 0.17886377420779365 0.20665087789470646 0.033596393542541403 -0.032023716067740036\nleaf_weight=36 29 46 25 30 27 45 40 33 28 44 41 63 34 30 42 40 37 35 27 58 32 36 49 35 57 25 136\nleaf_count=36 29 46 25 30 27 45 40 33 28 44 41 63 34 30 42 40 37 35 27 58 32 36 49 35 57 25 136\ninternal_value=0 0.0539334 -0.0600504 -0.0588609 -0.478325 0.390859 -0.24202 -0.00341125 -0.112233 0.0523256 -0.376381 -0.0690107 0.215185 -0.132049 -0.0587776 0.0275062 0.0112768 0.0352516 0.106485 0.496974 0.300934 -0.310136 -0.123033 0.105191 0.168106 -0.0088263 -0.0215642\ninternal_weight=0 591 442 569 52 149 182 390 132 258 81 148 110 101 71 387 357 317 121 104 66 69 112 63 84 196 161\ninternal_count=1160 591 442 569 52 149 182 390 132 258 81 148 110 101 71 387 357 317 121 104 66 69 112 63 84 196 161\nis_linear=0\nshrinkage=0.0981432\n\n\nTree=27\nnum_leaves=30\nnum_cat=0\nsplit_feature=5 5 5 0 0 0 5 5 5 2 0 6 5 6 0 0 0 2 2 1 3 3 0 0 1 6 5 5 0\nsplit_gain=452.375 2608.43 1153.33 924.503 875.152 482.72 308.844 627.811 567.941 308.112 217.87 211.365 156.169 150.107 140.119 210.355 132.147 124.886 94.349 105.024 84.055 77.0853 71.1528 57.3752 33.8625 26.1154 15.5403 16.3181 15.5685\nthreshold=0.6925 0.62130000000000007 0.59150000000000003 8.9275588912703014 7.5079090206953145 8.2115781850198442 0.50770000000000015 0.55500000000000005 0.43760000000000004 8.1299971853108328 8.4781825543822755 5.4374101000000001 0.32740000000000008 12.714593800000001 9.0945054727757988 9.2558897181369524 9.8391975926120612 6.4551728783515356 7.187244509869763 -4.1107258583146287 70.027752632170021 35.550640428120012 7.4174564964960163 6.2837548500730618 -3.5556261364485362 10.542085500000001 0.84270000000000012 0.81520000000000004 10.232777572152036\ndecision_type=2 2 2 2 2 2 2 2 2 2 2 2 2 2 2 2 2 2 2 2 2 2 2 2 2 2 2 2 2\nleft_child=1 2 6 9 -4 13 8 20 12 11 -11 -2 -1 25 -5 -16 17 -17 -10 -20 -8 -13 -9 -14 -19 -3 27 -18 -28\nright_child=3 5 4 14 -6 -7 7 22 18 10 -12 21 23 -15 15 16 26 24 19 -21 -22 -23 -24 -25 -26 -27 28 -29 -30\nleaf_value=-0.11288747384552712 -0.071184435765372395 -0.47816848256032257 0.89875332640499039 -0.23834060074713431 0.094809469961393791 -0.12982007888010202 0.19943353960809693 -0.18763042092542767 -0.11334851440006288 0.55957442183402628 0.22797574690263464 0.35810244650015477 0.18052309976436617 -0.65709302066172759 0.20065283727811542 0.045888054373878259 0.01384661889185273 -0.10931525761059946 -0.18894053572386002 -0.44404019075582696 0.42650097396896358 0.14159810791923444 0.021968863218208186 0.037407973449771079 -0.24789489132283754 -0.31494974927077529 -0.028794111772106033 -0.091491397556890106 0.041973039650791015\nleaf_weight=36 34 31 25 27 27 42 32 37 43 37 43 26 64 49 40 29 29 32 38 29 37 45 26 48 44 27 39 26 118\nleaf_count=36 34 31 25 27 27 42 32 37 43 37 43 26 64 49 40 29 29 32 38 29 37 45 26 48 44 27 39 26 118\ninternal_value=0 -0.0615102 0.0582802 0.0610099 0.489022 -0.415566 0 0.121732 -0.0624084 0.240786 0.385397 0.128427 0.0629482 -0.525818 -0.0258298 -0.00922322 -0.0361953 -0.125831 -0.2306 -0.303398 0.324812 0.22413 -0.101467 0.120071 -0.191509 -0.407571 0.0083599 -0.0360321 0.0241744\ninternal_weight=0 591 442 569 52 149 390 132 258 185 80 105 148 107 384 357 317 105 110 67 69 71 63 112 76 58 212 55 157\ninternal_count=1160 591 442 569 52 149 390 132 258 185 80 105 148 107 384 357 317 105 110 67 69 71 63 112 76 58 212 55 157\nis_linear=0\nshrinkage=0.0981432\n\n\nTree=28\nnum_leaves=31\nnum_cat=0\nsplit_feature=5 5 0 5 0 0 5 5 5 2 6 5 0 0 0 6 0 3 2 1 2 0 0 3 6 5 5 5 5 0\nsplit_gain=485.911 2819.01 1086.8 996.545 844.481 693.232 299.036 595.193 542.902 256.662 166.215 150.933 101.536 156.499 157.926 120.128 101.274 90.7348 73.3189 58.2617 53.9193 48.263 47.3051 25.2126 25.052 23.9487 15.1529 10.8077 14.7513 8.17988\nthreshold=0.69110000000000016 0.62130000000000007 8.6718847834267745 0.59150000000000003 7.5079090206953145 8.2297643258941182 0.50770000000000015 0.55500000000000005 0.43760000000000004 7.8456331115377376 12.9484504 0.32740000000000008 9.2558897181369524 9.0945054727757988 8.9275588912703014 2.5302769000000009 9.8391975926120612 67.684198347600017 7.1475094454432124 -4.1889590769902894 8.1233287392276932 6.4080010739671973 7.263839294817612 60.416866822337504 8.3676608000000012 0.65930000000000011 0.92020000000000024 0.79870000000000008 0.84270000000000012 9.5699769314818948\ndecision_type=2 2 2 2 2 2 2 2 2 2 2 2 2 2 2 2 2 2 2 2 2 2 2 2 2 2 2 2 2 2\nleft_child=1 3 9 6 -5 10 8 17 11 23 25 -1 13 14 20 26 29 -8 -10 -20 -4 -13 -9 -2 -11 -3 27 -14 -29 -17\nright_child=2 5 12 4 -6 -7 7 22 18 24 -12 21 15 -15 -16 16 -18 -19 19 -21 -22 -23 -24 -25 -26 -27 -28 28 -30 -31\nleaf_value=0.10487938625834672 -0.23639439158913289 0.35150141827792142 0.0022318598960112167 -0.86390584518616731 -0.074817740542474878 0.07071576769043425 -0.19111767360319565 0.17835882022924715 0.108985674405088 -0.3524642033337218 0.70661727592834245 -0.17286256029683716 -0.044751234872779017 -0.22547842537673565 0.20172556529833158 0.22559062451814593 -0.0078700922368226608 -0.42667190272077138 0.18739429100820112 0.3759138739274801 -0.17840114755151698 -0.037611093098227792 0.0080836086131328561 -0.1039997558180611 -0.5097343137135899 0.51491186607692252 -0.070224149428450885 0.066258746387533402 -0.00308732564456828 0.14518871297437239\nleaf_weight=36 28 28 35 25 27 37 31 30 40 28 48 71 34 40 27 37 38 38 37 33 28 41 33 33 39 30 30 40 105 33\nleaf_count=36 28 28 35 25 27 37 31 30 40 28 48 71 34 40 27 37 38 38 37 33 28 41 33 33 39 30 30 40 105 33\ninternal_value=0 0.0615388 -0.0654235 -0.061095 -0.461499 0.439131 -0.00686589 -0.126669 0.0545143 -0.316684 0.566098 -0.0680236 0.00687244 -0.0658673 0.00604381 0.0368696 0.120544 -0.324378 0.218973 0.279649 -0.0787781 -0.124157 0.0907117 -0.167307 -0.448976 0.441906 -0.0065167 0.00425977 0.0161018 0.189978\ninternal_weight=0 585 575 442 52 143 390 132 258 128 106 148 447 130 90 317 108 69 110 70 63 112 63 61 67 58 209 179 145 70\ninternal_count=1160 585 575 442 52 143 390 132 258 128 106 148 447 130 90 317 108 69 110 70 63 112 63 61 67 58 209 179 145 70\nis_linear=0\nshrinkage=0.0981432\n\n\nTree=29\nnum_leaves=30\nnum_cat=0\nsplit_feature=5 5 0 5 0 0 5 5 5 2 6 5 0 0 0 3 6 6 2 5 0 6 0 1 0 5 5 2 0\nsplit_gain=577.526 3134.98 1225.43 910.641 945.988 741.156 344.456 596.742 552.007 322.615 263.743 166.982 110.807 196.151 131.081 99.0452 82.582 81.4209 77.9865 77.6915 74.0429 69.2817 51.3095 48.4241 37.69 15.3736 16.4157 15.3706 11.0945\nthreshold=0.69110000000000016 0.62130000000000007 8.6958132808401132 0.59150000000000003 7.5079090206953145 8.2297643258941182 0.50770000000000015 0.55500000000000005 0.43760000000000004 7.8456331115377376 12.074082500000001 0.33950000000000008 9.2558897181369524 9.1467883390459743 9.81772385579937 67.684198347600017 1.997384566666667 7.6354523000000016 7.132459974567241 0.46070000000000005 6.4080010739671973 5.9907791000000019 7.1704750207650561 -1.0927679574622857 8.9275588912703014 0.81630000000000014 0.85030000000000017 8.0608603158795074 9.5191125878566094\ndecision_type=2 2 2 2 2 2 2 2 2 2 2 2 2 2 2 2 2 2 2 2 2 2 2 2 2 2 2 2 2\nleft_child=1 3 9 6 -5 10 8 15 11 23 -3 -1 13 21 16 -8 -14 -11 -10 -20 -13 24 -9 -2 -4 -16 -27 -28 -18\nright_child=2 5 12 4 -6 -7 7 22 18 17 -12 20 14 -15 25 -17 28 -19 19 -21 -22 -23 -24 -25 -26 26 27 -29 -30\nleaf_value=-0.10160526023945739 0.24128582678679711 -0.42332707770988465 0.0054232553759589837 0.86784184879266102 0.034264803626146235 -0.086938649647057803 0.19506015569738711 -0.18871880477804126 -0.10868058060335804 0.30371745639551229 -0.74872992624728729 0.19217835352376955 0.019804222164142803 0.29233891597692824 -0.061609516754971463 0.44076101471887391 -0.22939343599885401 0.54338897583248635 -0.14288755004373516 -0.36372890802061331 0.022515661722088662 0.087320483364512202 -0.0083127799632193022 0.064954554100130721 -0.16263049936627522 0.069139215475381335 -0.038574592067378809 0.02507401816236559 -0.14351082606629614\nleaf_weight=41 32 50 25 25 27 37 31 25 39 25 56 67 25 28 31 38 34 48 26 45 40 45 38 30 25 38 64 83 42\nleaf_count=41 32 50 25 25 27 37 31 25 39 25 56 67 25 28 31 38 34 48 26 45 40 45 38 30 25 38 64 83 42\ninternal_value=0 -0.0700033 0.0684116 0.0593305 0.442089 -0.468189 0.00748648 0.136061 -0.0583957 0.326205 -0.599492 0.0651776 -0.0110403 0.0676896 -0.041758 0.333999 -0.133609 0.465546 -0.224219 -0.285537 0.129589 0 -0.0816781 0.15816 -0.0792337 0.0013796 0.0122801 -0.00251332 -0.18412\ninternal_weight=0 585 575 442 52 143 390 132 258 135 106 148 440 123 317 69 101 73 110 71 107 95 63 62 50 216 185 147 76\ninternal_count=1160 585 575 442 52 143 390 132 258 135 106 148 440 123 317 69 101 73 110 71 107 95 63 62 50 216 185 147 76\nis_linear=0\nshrinkage=0.0981432\n\n\nTree=30\nnum_leaves=31\nnum_cat=0\nsplit_feature=5 5 0 5 0 5 0 5 5 2 6 2 5 6 0 0 0 3 5 0 1 6 0 6 6 5 6 1 5 2\nsplit_gain=560.114 3123.78 1234.35 931.019 770.313 572.017 377.531 785.709 485.059 251.158 175.349 135.935 113.087 95.9183 72.7422 182.726 153.199 58.9555 58.3478 65.7994 55.5297 27.9778 17.3232 17.8101 17.1186 15.8366 13.7891 13.775 12.2427 9.94401\nthreshold=0.69110000000000016 0.62130000000000007 8.7102973508961821 0.50770000000000015 8.2297643258941182 0.45650000000000007 7.6880638968951347 0.59150000000000003 0.55500000000000005 7.8456331115377376 12.9484504 7.1475094454432124 0.33950000000000008 7.7315001666666667 9.2558897181369524 9.1467883390459743 9.6506399270042902 17.965500726233337 0.43760000000000004 6.4080010739671973 -0.96834896452560471 19.772846900000001 9.9992985793641758 2.0780190000000003 3.2218770999999999 0.75290000000000012 25.881942400000003 -1.7444037112695974 0.85590000000000022 8.4629851599118435\ndecision_type=2 2 2 2 2 2 2 2 2 2 2 2 2 2 2 2 2 2 2 2 2 2 2 2 2 2 2 2 2 2\nleft_child=1 3 9 5 10 12 7 8 21 20 27 -7 -1 -11 15 17 24 -4 19 -14 -2 -5 23 -18 -16 -19 -13 -3 -24 -10\nright_child=2 4 14 6 -6 11 -8 -9 29 13 -12 26 18 -15 16 -17 22 25 -20 -21 -22 -23 28 -25 -26 -27 -28 -29 -30 -31\nleaf_value=0.095780752921589593 -0.25521899149255162 0.53154037943463672 0.13362407019174966 -0.43607851689164884 0.075360221521147144 0.11188064504021114 0.038803651368198785 -0.71190895280548383 0.0060722939476052125 -0.28479380986254138 0.74228345685134922 0.43190013439402286 -0.17980320277035766 -0.53452263446178638 0.097195550557061847 -0.26972543723184589 -0.0096073326715758346 -0.077243310087159248 0.043839502289162419 -0.019857409945474448 -0.067806079941592254 -0.2794364380546267 -0.056023160310621725 0.086802896306571592 0.20437249985927994 0.020647703726178107 0.29230097047559506 0.38487064764554973 0 0.094382856214209762\nleaf_weight=41 38 31 27 29 37 35 39 34 25 27 48 25 67 47 27 28 35 38 25 40 27 32 53 37 42 26 25 27 123 25\nleaf_count=41 38 31 27 29 37 35 39 34 25 27 48 25 67 47 27 28 35 38 25 40 27 32 53 37 42 26 25 27 123 25\ninternal_value=0 0.0662162 -0.0700962 -0.0628813 0.463694 0.0573192 -0.231119 -0.303728 -0.174569 -0.323935 0.597532 0.264673 -0.0451033 -0.447487 0.0111818 -0.0539449 0.0357816 0.0138058 -0.0893516 -0.120803 -0.179414 -0.358675 -0.000250276 0.0399548 0.164291 -0.0372876 0.367911 0.469432 -0.0169454 0.0514803\ninternal_weight=0 585 575 442 143 258 184 145 111 139 106 85 173 74 436 119 317 91 132 107 65 61 248 72 69 64 50 58 176 50\ninternal_count=1160 585 575 442 143 258 184 145 111 139 106 85 173 74 436 119 317 91 132 107 65 61 248 72 69 64 50 58 176 50\nis_linear=0\nshrinkage=0.0981432\n\n\nTree=31\nnum_leaves=31\nnum_cat=0\nsplit_feature=5 5 0 5 5 0 0 5 5 1 6 5 3 1 2 0 6 6 0 0 0 5 3 3 6 0 0 3 2 3\nsplit_gain=616.761 3547.02 1375.38 1073.3 679.25 677.238 354.448 536.375 351.985 263.666 146.722 128.275 122.251 119.305 118.724 78.9507 80.487 66.4224 65.2957 152.267 109.346 76.9268 60.8132 39.2114 26.254 22.1648 19.8121 18.3833 13.2564 10.3951\nthreshold=0.68810000000000004 0.62130000000000007 8.7102973508961821 0.50770000000000015 0.45820000000000005 8.2297643258941182 7.6880638968951347 0.59400000000000008 0.55500000000000005 -1.8724257138163598 13.065863933333336 0.32740000000000008 71.684729937580016 -2.3625710407602241 7.1550387410655203 6.4080010739671973 26.146720100000003 9.3843758000000026 9.2558897181369524 9.6729053436826202 9.1467883390459743 0.7602000000000001 73.32817528306002 56.779513130440009 19.921201200000002 7.1896802149701164 9.9223489185381144 47.185205444740006 8.0718526922232972 62.453269439860001\ndecision_type=2 2 2 2 2 2 2 2 2 2 2 2 2 2 2 2 2 2 2 2 2 2 2 2 2 2 2 2 2 2\nleft_child=1 3 9 4 11 10 7 8 12 17 13 -1 -5 -3 -6 16 -13 -2 20 28 21 23 -11 -4 -17 -10 -21 -28 -20 -29\nright_child=2 5 18 6 14 -7 -8 -9 25 22 -12 15 -14 -15 -16 24 -18 -19 19 26 -22 -23 -24 -25 -26 -27 27 29 -30 -31\nleaf_value=-0.12292974691586553 0.35368875218194595 -0.67358123904452294 -0.029660785241678537 0.54196657128665016 -0.1570222758921746 -0.12136576170546343 -0.018362044744969004 0.67955411656100695 0.090201660682412074 0.060529190168089775 -0.7660832659500566 0.0067730555961989054 0.24893020793268458 -0.36585890125149229 -0.40510418009110327 0.063031803721403143 0.20830668934003177 0.5484726423957702 -0.21066025560052454 -0.058750540880178212 0.21178686258266594 -0.13151309442927767 0.26252878881204317 0.12772058368182568 -0.069847123922605531 -0.03367552836564023 -0.0096729821314747982 0.096923616696348552 -0.11895651195931944 0.01647278830885459\nleaf_weight=36 48 25 27 25 34 34 39 30 28 28 47 29 36 32 46 26 57 37 34 48 28 31 31 33 30 26 132 29 39 35\nleaf_count=36 48 25 27 25 34 34 39 30 28 28 47 29 36 32 46 26 57 37 34 48 28 31 31 33 30 26 132 29 39 35\ninternal_value=0 -0.0729244 0.0701097 0.0628148 -0.0662409 -0.505885 0.243455 0.313791 0.214404 0.332256 -0.629592 0.0405676 0.37452 -0.508198 -0.302406 0.0826254 0.14129 0.442794 -0.0168277 -0.0401228 0.0448716 -0.00749688 0.169046 0.0569682 -0.00767199 0.0304281 -0.00265528 0.0111182 -0.163714 0.0540262\ninternal_weight=0 580 580 442 258 138 184 145 115 144 104 178 61 57 80 142 86 85 436 317 119 91 59 60 56 54 244 196 73 64\ninternal_count=1160 580 580 442 258 138 184 145 115 144 104 178 61 57 80 142 86 85 436 317 119 91 59 60 56 54 244 196 73 64\nis_linear=0\nshrinkage=0.0981432\n\n\nTree=32\nnum_leaves=31\nnum_cat=0\nsplit_feature=5 5 0 5 5 0 0 5 5 1 6 5 2 1 6 3 3 6 5 0 0 0 0 0 2 3 6 0 6 6\nsplit_gain=693.447 3606.33 1416.38 1175.17 847.815 800.731 308.657 447.908 244.487 221.092 172.85 147.712 141.154 115.01 78.7573 72.7117 65.0908 58.2 58.1386 86.4692 59.352 43.6821 41.4483 40.2718 50.5156 27.7637 23.4684 22.5147 6.35154 6.91191\nthreshold=0.68810000000000004 0.62130000000000007 8.7102973508961821 0.50770000000000015 0.45820000000000005 8.2297643258941182 7.6880638968951347 0.59400000000000008 0.55500000000000005 -1.9455029662344194 12.9484504 0.32740000000000008 7.2152669506033069 -2.1903892401464056 30.548062100000003 74.328176248940011 77.748414967216675 10.213192000000001 0.74410000000000009 9.9116970199316601 9.2558897181369524 7.1704750207650561 9.0945054727757988 9.6729053436826202 9.0309884753993028 65.137476158226676 17.539126000000003 5.9410744662825801 1.3029360000000003 1.9195214333333335\ndecision_type=2 2 2 2 2 2 2 2 2 2 2 2 2 2 2 2 2 2 2 2 2 2 2 2 2 2 2 2 2 2\nleft_child=1 3 9 4 11 10 7 8 16 17 13 -1 -6 -3 26 -11 -5 -2 25 20 22 -10 -20 24 -22 -4 -13 -16 -21 -30\nright_child=2 5 18 6 12 -7 -8 -9 21 15 -12 14 -14 -15 27 -17 -18 -19 19 28 23 -23 -24 -25 -26 -27 -28 -29 29 -31\nleaf_value=0.12879520937035116 -0.37702323323614306 0.67454111864527 -0.0067848955599453991 -0.48065441141754933 0.18537695552841432 0.094074932806487432 -0.0053899285669315776 -0.65173709168029315 -0.16143869822792101 -0.088272140067443189 0.7894623388712303 -0.10175305674271666 0.4544241522688604 0.36899824465951786 -0.25026761500405514 -0.30416259235384135 -0.26065562079927512 -0.57414515958087342 0.068901464890479991 -0.039645161231097535 0.22238907766861557 0.01284435208324095 -0.086942849619039073 0.040825377618095696 0.046381914941978152 -0.1444501048423939 0.0017256400057872089 -0.11283286136636765 0.02830425506108758 -0.021867516332045343\nleaf_weight=36 54 25 27 26 36 34 39 30 26 31 48 32 44 31 27 31 35 28 36 85 46 28 29 44 25 30 58 25 40 74\nleaf_count=36 54 25 27 26 36 34 39 30 26 31 48 32 44 31 27 31 35 28 36 85 46 28 29 44 25 30 58 25 40 74\ninternal_value=0 0.0744812 -0.0771847 -0.0623899 0.0726491 0.511045 -0.251412 -0.317039 -0.225882 -0.343206 0.64548 -0.0466895 0.336493 0.512898 -0.091801 -0.198956 -0.359499 -0.449194 0.0110487 0.0250352 0.0742149 -0.0716391 -0.000425133 0.116363 0.161902 -0.0806207 -0.0353076 -0.187208 -0.0194276 -0.00396485\ninternal_weight=0 580 580 442 258 138 184 145 115 144 104 178 80 56 142 62 61 82 436 379 180 54 65 115 71 57 90 52 199 114\ninternal_count=1160 580 580 442 258 138 184 145 115 144 104 178 80 56 142 62 61 82 436 379 180 54 65 115 71 57 90 52 199 114\nis_linear=0\nshrinkage=0.0981432\n\n\nTree=33\nnum_leaves=28\nnum_cat=0\nsplit_feature=5 5 0 5 5 0 0 5 1 2 5 6 5 1 6 6 3 6 6 0 5 5 0 0 2 3 0\nsplit_gain=663.815 3629.06 1511 1092.25 1016.24 847.528 389.169 306.369 231.904 200.347 197.413 186.505 159.649 128.046 105.071 83.074 75.4196 52.7043 49.8415 58.0017 49.8303 70.879 91.1143 99.8321 30.0912 19.468 18.8861\nthreshold=0.68810000000000004 0.62130000000000007 8.7102973508961821 0.50770000000000015 0.45820000000000005 8.2297643258941182 7.1033624641681508 0.59150000000000003 -2.0424375991825294 7.2473236278184467 0.5698000000000002 12.714593800000001 0.32740000000000008 -2.0140494390604187 34.053143300000009 25.145774366666668 74.328176248940011 25.145774366666668 10.762434400000002 8.4512932108014187 0.74260000000000004 0.77050000000000007 9.2348103348977766 9.8391975926120612 9.0788929016335178 69.271120695090005 10.268302900862478\ndecision_type=2 2 2 2 2 2 2 2 2 2 2 2 2 2 2 2 2 2 2 2 2 2 2 2 2 2 2\nleft_child=1 3 8 4 12 11 15 10 18 -6 -8 13 -1 -3 17 -5 -10 -14 19 -2 25 -22 -23 24 -24 -4 -25\nright_child=2 5 20 6 9 -7 7 -9 16 -11 -12 -13 14 -15 -16 -17 -18 -19 -20 -21 21 22 23 26 -26 -27 -28\nleaf_value=-0.12037616229454347 0.27988302501967205 -0.68035458895915801 0.0092498401393969528 0.49201825113302755 -0.1875019362026267 -0.084894083191885433 0.13318341947503698 0.3446258743093647 0.094084554706478848 -0.50451159374321275 -0.20103783405400624 -0.79788451110900249 0.11407192257486552 -0.35841917354528746 0.24982884747523609 0.26815209458399974 0.3091017927900383 -0.026708670036110799 0.58460317116144533 0.50556408399174124 -0.14033527357619557 0.14637018698938759 -0.15338473116345896 0.042229872448054546 -0.031998477477053429 0.12661907341152429 -0.017549952361252067\nleaf_weight=36 28 25 28 48 38 34 41 37 32 42 28 49 63 30 37 30 33 42 26 25 49 30 63 85 30 27 124\nleaf_count=36 28 25 28 48 38 34 41 37 32 42 28 49 63 30 37 30 33 42 26 25 49 30 63 85 30 27 124\ninternal_value=0 -0.0755944 0.0727956 0.0617086 -0.0684791 -0.513531 0.243939 0.119802 0.347563 -0.357363 -0.00276074 -0.651818 0.0621532 -0.51233 0.108998 0.409586 0.205903 0.0577184 0.46079 0.392333 -0.0183291 -0.0310058 -0.0145139 -0.0309021 -0.115072 0.0682576 0.00670028\ninternal_weight=0 580 580 442 258 138 184 106 144 80 69 104 178 55 142 78 65 105 79 53 436 381 332 302 93 55 209\ninternal_count=1160 580 580 442 258 138 184 106 144 80 69 104 178 55 142 78 65 105 79 53 436 381 332 302 93 55 209\nis_linear=0\nshrinkage=0.0981432\n\n\nTree=34\nnum_leaves=31\nnum_cat=0\nsplit_feature=5 5 0 5 5 0 0 2 6 1 5 5 5 6 3 5 0 6 6 0 1 5 0 2 6 0 3 5 3 1\nsplit_gain=786.508 3734.03 1472.28 1116.24 1121.81 865.513 522.226 269.778 226.259 200.984 189.635 222.845 173.052 153.273 96.2284 54.5945 105.807 54.1647 52.9944 42.1968 38.4741 24.6611 69.0296 29.9774 20.5138 17.2179 4.17365 8.97319 4.1624 5.46825\nthreshold=0.68810000000000004 0.62130000000000007 8.7505287455758243 0.50770000000000015 0.45820000000000005 8.2297643258941182 7.1033624641681508 7.3100038744652158 9.5859862000000025 -1.9455029662344194 0.59150000000000003 0.56310000000000004 0.32740000000000008 34.053143300000009 73.32817528306002 0.73880000000000012 9.8391975926120612 27.224621400000004 10.864755400000002 9.6729053436826202 -1.5919803103091608 0.77710000000000012 9.2558897181369524 8.0808890595313105 25.145774366666668 10.392636510419377 12.492828691370002 0.84620000000000006 37.590368040830008 -3.0777872122676442\ndecision_type=2 2 2 2 2 2 2 2 2 2 2 2 2 2 2 2 2 2 2 2 2 2 2 2 2 2 2 2 2 2\nleft_child=1 3 9 4 12 8 24 -6 -3 18 11 -8 -1 17 -11 -4 19 -14 -2 21 -10 23 -23 -17 -5 26 -18 -28 29 -27\nright_child=2 5 15 6 7 -7 10 -9 20 14 -12 -13 13 -15 -16 16 25 -19 -20 -21 -22 22 -24 -25 -26 28 27 -29 -30 -31\nleaf_value=0.1245351857920849 -0.3805617200660541 0.38545592146883967 -0.090102428522103026 -0.48482943636663867 0.18875453502875111 0.090357091969260353 -0.15738009496032077 0.5542693546026437 0.81870358975280166 -0.084184391663365721 -0.27762574658524386 0.19450419884948578 -0.09297817713676565 -0.28419424902079432 -0.32410885933342581 0.16537633070197802 -0.025732820680288673 0.068317792407822833 -0.57163561331757073 0.18123621110794155 0.61107323435010574 -0.10550424543761151 0.08384735138665006 0.021506058224755854 -0.34667228544153944 -0.0016405391474858997 -0.023307327382745911 -0.1006182435624262 -0.022110918753110134 0.054307287318349488\nleaf_weight=36 60 25 45 48 40 34 39 40 49 32 37 30 79 37 34 33 41 26 26 32 30 27 55 25 30 46 27 35 37 25\nleaf_count=36 60 25 45 48 40 34 39 40 49 32 37 30 79 37 34 33 41 26 26 32 30 27 55 25 30 46 27 35 37 25\ninternal_value=0 0.079408 -0.0821147 -0.0598712 0.0717344 0.52363 -0.244095 0.37525 0.663384 -0.343703 -0.100741 -0.00356814 -0.0655209 -0.114285 -0.210404 0.0111582 0.0232753 -0.0525903 -0.443025 0.0802771 0.746603 0.0561803 0.020795 0.104866 -0.435792 -0.0231846 -0.0517594 -0.0680435 0.00399233 0.0180503\ninternal_weight=0 580 580 442 258 138 184 80 104 152 106 69 178 142 66 428 383 105 86 172 79 140 82 58 78 211 103 62 108 71\ninternal_count=1160 580 580 442 258 138 184 80 104 152 106 69 178 142 66 428 383 105 86 172 79 140 82 58 78 211 103 62 108 71\nis_linear=0\nshrinkage=0.0981432\n\n\nTree=35\nnum_leaves=31\nnum_cat=0\nsplit_feature=5 5 0 5 5 0 0 2 6 3 6 5 6 1 1 3 6 0 0 0 3 3 6 2 0 3 6 1 6 0\nsplit_gain=720.873 3574.63 1551.14 1102.74 1097.24 822.171 529.799 301.986 214.484 203.189 229.069 190.2 203.424 155.417 148.483 113.539 83.7123 73.505 57.6668 111.764 52.2421 50.2949 55.3626 47.8354 20.9752 18.1357 17.9207 14.8668 14.4261 11.7284\nthreshold=0.68810000000000004 0.62130000000000007 8.7505287455758243 0.50770000000000015 0.45820000000000005 8.2297643258941182 7.1033624641681508 7.3559385930340495 9.8321913000000016 86.890658550090009 10.655350600000002 0.32740000000000008 34.053143300000009 -2.117011049617028 -1.1981272516520234 73.32817528306002 26.351320100000006 8.2791095175207534 9.8391975926120612 9.3568476630355004 82.407772648333349 28.721712652600001 4.9913692333333346 7.175742578787685 10.591250160504668 5.7348288390000013 3.0944916000000005 -3.1556314963270959 8.3676608000000012 10.066181427134158\ndecision_type=2 2 2 2 2 2 2 2 2 2 2 2 2 2 2 2 2 2 2 2 2 2 2 2 2 2 2 2 2 2\nleft_child=1 3 13 4 11 8 23 -6 -3 10 -8 -1 16 17 -10 -15 -13 -2 19 20 21 -4 -23 -5 25 -20 -21 -26 -19 -27\nright_child=2 5 18 6 7 -7 9 -9 14 -11 -12 12 -14 15 -16 -17 -18 28 24 26 -22 22 -24 -25 27 29 -28 -29 -30 -31\nleaf_value=-0.13668745651342515 0.56334076353161122 -0.38531562676075437 -0.051935096466224663 0.30519226343876099 -0.18148027517597087 -0.090933819827601861 -0.0057543258256901901 -0.56731025981729355 -0.83160152904520068 -0.091381723661603034 0.34922810896692608 0.10071885691722826 0.30928166138852076 0.099171770231739217 -0.5044390975343388 0.35241985162271133 -0.087753762388722359 0.27992600900877163 -0.016779895252159172 -0.090792839719581436 -0.12027977016607019 0.010051546678485722 0.19537095507836691 0.49235547544315672 0.015721703515188944 0.017220044976598615 -0.18525869777728407 -0.066270690511651437 0.41751706504650216 0.091172074871558331\nleaf_weight=36 31 26 40 26 41 34 31 39 53 36 39 73 37 34 25 36 32 26 36 41 26 38 26 52 46 34 45 38 25 58\nleaf_count=36 31 26 40 26 41 34 31 39 53 36 39 73 37 34 25 36 32 26 36 41 26 38 26 52 46 34 45 38 25 58\ninternal_value=0 -0.0786819 0.0759542 0.0575924 -0.0732111 -0.513319 0.240702 -0.373381 -0.649534 0.0963643 0.193237 0.062539 0.113679 0.344462 -0.732814 0.232115 0.0428181 0.43711 -0.0197731 -0.0554053 0.00195218 0.0333967 0.0871196 0.433764 0.0164742 0.0414576 -0.141687 -0.0213148 0.352899 0.064482\ninternal_weight=0 580 580 442 258 138 184 80 104 106 70 178 142 152 78 70 105 82 428 216 130 104 64 78 212 128 86 84 51 92\ninternal_count=1160 580 580 442 258 138 184 80 104 106 70 178 142 152 78 70 105 82 428 216 130 104 64 78 212 128 86 84 51 92\nis_linear=0\nshrinkage=0.0981432\n\n\nTree=36\nnum_leaves=31\nnum_cat=0\nsplit_feature=5 5 0 5 5 0 0 2 6 5 3 6 6 1 1 2 3 6 0 0 3 6 6 6 3 0 1 1 3 0\nsplit_gain=747.137 3574.7 1564.36 1181.98 1171.49 995.916 507.001 388.276 294.652 202.493 196.375 207.35 196.062 189.118 172.266 118.796 100.816 91.9044 58.0546 74.9698 66.5942 64.3614 57.3509 51.1595 33.5976 21.9946 10.6777 10.0501 11.0604 8.7141\nthreshold=0.68810000000000004 0.62130000000000007 8.7604159360654723 0.50770000000000015 0.45820000000000005 8.2297643258941182 7.1033624641681508 7.3559385930340495 9.8321913000000016 0.32740000000000008 83.064489063140016 9.2369289000000023 34.053143300000009 -1.498725412289809 -2.117011049617028 7.187244509869763 73.32817528306002 25.145774366666668 9.8861780120133425 9.3568476630355004 76.369396748310024 3.2218770999999999 4.410996775000001 8.3676608000000012 37.590368040830008 10.591250160504668 -2.117011049617028 -0.89125890245388584 12.492828691370002 10.846626747120862\ndecision_type=2 2 2 2 2 2 2 2 2 2 2 2 2 2 2 2 2 2 2 2 2 2 2 2 2 2 2 2 2 2\nleft_child=1 3 14 4 9 8 15 -6 -3 -1 11 -8 17 -10 23 -5 -16 -11 19 20 22 -21 -4 -2 -24 27 29 28 -20 -27\nright_child=2 5 18 6 7 -7 10 -9 13 12 -12 -13 -14 -15 16 -17 -18 -19 25 21 -22 -23 24 -25 -26 26 -28 -29 -30 -31\nleaf_value=0.14181854438597224 -0.33761353036360131 0.35830687190082688 0.047034640682412934 -0.25780656055318013 0.17019357856319656 0.048560909374087045 0.010950342907963919 0.60618623703815289 0.87855465193169935 -0.12144739161365536 0.070195240262566738 -0.33927522024709311 -0.3085791126377137 0.52576285280480783 -0.11215244803461157 -0.52689200386051771 -0.34645286955452043 0.064472815041646009 0.014581970205504469 0.045532241498372462 0.12625930955039599 0.2101285719137862 -0.02012638475582831 -0.51588006204119552 -0.17769565336438278 -0.050072627306915266 0.062427626764764974 -0.092661505943783473 -0.056173615617628452 0.029020388653431931\nleaf_weight=36 36 26 42 27 41 34 26 39 50 63 38 42 37 28 37 51 36 42 34 53 31 41 25 47 28 25 32 33 53 27\nleaf_count=36 36 26 42 27 41 34 26 39 50 63 38 42 37 28 37 51 36 42 34 53 31 41 25 47 28 25 32 33 53 27\ninternal_value=0 0.0773756 -0.0800523 -0.0588981 0.0765245 0.512018 -0.248472 0.386681 0.661865 -0.0637506 -0.107139 -0.206309 -0.116517 0.75839 -0.344991 -0.437386 -0.230377 -0.0468998 0.0177952 0.052718 0.0028905 0.118685 -0.0377579 -0.442548 -0.105164 -0.0197927 0.0184101 -0.0467014 -0.0283325 -0.00867545\ninternal_weight=0 580 580 442 258 138 184 80 104 178 106 68 142 78 156 78 73 105 424 220 126 94 95 83 53 204 84 120 87 52\ninternal_count=1160 580 580 442 258 138 184 80 104 178 106 68 142 78 156 78 73 105 424 220 126 94 95 83 53 204 84 120 87 52\nis_linear=0\nshrinkage=0.0981432\n\n\nTree=37\nnum_leaves=31\nnum_cat=0\nsplit_feature=5 5 0 5 5 0 0 2 6 1 5 6 0 2 3 0 6 6 0 3 0 6 0 2 2 3 6 0 6 0\nsplit_gain=669.198 3424.84 1463.88 1100.43 1113.33 1027.04 516.493 434.375 258.04 201.951 187.819 174.336 171.074 157.385 138.883 212.704 131.032 60.0646 59.05 57.3374 57.0856 56.6211 54.1219 52.5799 48.6248 41.8664 14.4141 14.2664 13.2229 6.68334\nthreshold=0.68810000000000004 0.62130000000000007 8.7505287455758243 0.50770000000000015 0.45820000000000005 8.2297643258941182 7.1033624641681508 7.3559385930340495 9.8321913000000016 -1.440764340240632 0.32740000000000008 34.053143300000009 8.0211976714476396 7.175742578787685 83.512434936630015 7.6523696910101471 8.2985190666666693 25.145774366666668 9.8861780120133425 73.953628826650018 9.3568476630355004 3.1595596333333336 8.4781825543822755 8.1580518069736048 8.2596551506346394 65.334807639000005 4.5269108000000005 10.932187862989174 5.3786957000000006 10.076866057063315\ndecision_type=2 2 2 2 2 2 2 2 2 2 2 2 2 2 2 2 2 2 2 2 2 2 2 2 2 2 2 2 2 2\nleft_child=1 3 12 4 10 8 13 -6 -3 -10 -1 17 -2 -5 15 -8 22 -12 19 20 24 -22 -14 -18 26 27 -4 29 -21 -20\nright_child=2 5 18 6 7 -7 14 -9 9 -11 11 -13 16 -15 -16 -17 23 -19 25 28 21 -23 -24 -25 -26 -27 -28 -29 -30 -31\nleaf_value=-0.13436750908755984 0.12729347544984981 -0.36732456443771916 -0.062146891626022591 0.222871292861647 -0.14741353195884654 -0.031095317678889602 0.34678693759630347 -0.60737409594298253 -0.86383177755522089 -0.49998162084426728 0.10894846562366209 0.29557483676957647 0.16304134696021544 0.53010429957543914 -0.054280529044738603 0.0030304783331932153 0.3644441809223084 -0.041321042740633432 0.050352299351371581 -0.089834654462904312 -0.017570492464748858 -0.18522399489766972 0.36417162526943447 0.57491892359501218 0.13936611546941002 0.13273451743179163 0.026397055133196189 -0.057551609531284402 -0.19802390893777466 0.0017182960373056336\nleaf_weight=36 32 26 35 26 41 34 35 39 51 27 63 37 27 52 37 34 28 42 36 25 47 33 30 35 25 26 34 32 25 110\nleaf_count=36 32 26 35 26 41 34 35 39 51 27 63 37 27 52 37 34 28 42 36 25 47 33 30 35 25 26 34 32 25 110\ninternal_value=0 -0.0758453 0.0731453 0.0575405 -0.0731254 -0.50128 0.240457 -0.375489 -0.653435 -0.744113 0.0636152 0.11443 0.333992 0.431091 0.0979128 0.17961 0.387774 0.0487235 -0.019848 -0.0545863 -0.0274991 -0.0881196 0.272673 0.487116 0.0241008 0.018227 -0.0183224 0.000872652 -0.146551 0.0140835\ninternal_weight=0 580 580 442 258 138 184 80 104 78 178 142 152 78 106 69 120 105 428 224 174 80 57 63 94 204 69 178 50 146\ninternal_count=1160 580 580 442 258 138 184 80 104 78 178 142 152 78 106 69 120 105 428 224 174 80 57 63 94 204 69 178 50 146\nis_linear=0\nshrinkage=0.0981432\n\n\nTree=38\nnum_leaves=31\nnum_cat=0\nsplit_feature=5 5 0 5 5 0 0 2 1 5 6 3 0 2 0 6 6 0 0 6 3 6 6 2 3 2 0 0 0 6\nsplit_gain=772.566 3695.54 1695.03 1213.62 1242.99 1089.36 578.343 464.559 239.951 217.197 185.877 157.975 255.21 145.957 113.74 176.91 56.5943 55.9335 55.395 43.4271 43.4248 65.6139 51.8884 42.1946 21.056 16.5688 15.9552 10.8961 10.207 3.21124\nthreshold=0.68810000000000004 0.62130000000000007 8.7505287455758243 0.50770000000000015 0.45820000000000005 8.2297643258941182 7.1033624641681508 7.3559385930340495 -1.7444037112695974 0.32740000000000008 34.053143300000009 86.890658550090009 7.6523696910101471 7.187244509869763 8.0211976714476396 7.6354523000000016 27.007925400000001 9.8576081202405117 8.5085095972898248 12.9484504 73.953628826650018 4.3636671000000016 2.5302769000000009 8.1580518069736048 65.334807639000005 8.178973944385449 9.2028904948784938 9.9992985793641758 9.4563448481015779 1.5781389000000003\ndecision_type=2 2 2 2 2 2 2 2 2 2 2 2 2 2 2 2 2 2 2 2 2 2 2 2 2 2 2 2 2 2\nleft_child=1 3 14 4 9 8 13 -6 19 -1 16 12 -8 -5 -2 18 -11 20 -16 -3 21 22 -4 -17 27 -23 -22 -19 -24 -29\nright_child=2 5 17 6 7 -7 11 -9 -10 10 -12 -13 -14 -15 15 23 -18 24 -20 -21 26 25 28 -25 -26 -27 -28 29 -30 -31\nleaf_value=0.14581002436343343 -0.18953806224378655 0.6786956691698921 0 -0.25649058059177449 0.16081125912248015 0.036323839077435076 -0.37097134522848535 0.63672637576241986 0.49002193397756977 -0.09619565400114391 -0.30881677290523563 0.064530581594796549 0.0011023708673013647 -0.55234505462562911 -0.15695173454187114 -0.39937702627209454 0.066713855067958613 -0.063210643984537171 -0.36853855648742917 0.92850726087492863 0.18866013880003857 0.0015429505597123008 0.088465289267747743 -0.59035517710342778 -0.097342382933519558 -0.094757149113538192 0.072554067828380905 -0.0074153648394469892 0.17936959347241249 0.020907862609806521\nleaf_weight=36 32 30 46 27 41 34 35 39 45 78 37 36 35 51 27 30 27 26 25 29 25 34 26 38 27 33 25 89 31 66\nleaf_count=36 32 30 46 27 41 34 35 39 45 78 37 36 35 51 27 30 27 26 25 29 25 34 26 38 27 33 25 89 31 66\ninternal_value=0 0.0787147 -0.08137 -0.0598442 0.0773805 0.520642 -0.251938 0.396863 0.677348 -0.0671107 -0.121752 -0.101142 -0.186501 -0.453648 -0.362054 -0.406393 -0.0538816 0.0187045 -0.262927 0.811926 0.0531521 0.0290274 0.078077 -0.5117 -0.0176637 -0.046018 0.133035 -0.0052844 0.140029 0.00451798\ninternal_weight=0 580 580 442 258 138 184 80 104 178 142 106 70 78 152 120 105 428 52 59 220 170 103 68 208 67 50 181 57 155\ninternal_count=1160 580 580 442 258 138 184 80 104 178 142 106 70 78 152 120 105 428 52 59 220 170 103 68 208 67 50 181 57 155\nis_linear=0\nshrinkage=0.0981432\n\n\nTree=39\nnum_leaves=27\nnum_cat=0\nsplit_feature=5 5 0 5 5 0 0 2 5 6 3 0 2 2 1 0 6 6 3 5 5 0 6 0 5 5\nsplit_gain=737.007 3381.09 1611.58 1073.44 1180.38 1068.88 536.514 404.371 220.705 185.363 155.776 257.218 149.404 148.645 133.626 84.2298 64.8084 41.6298 40.6207 47.03 21.6819 20.6759 18.6565 45.273 16.7703 4.3745\nthreshold=0.68810000000000004 0.62130000000000007 8.7505287455758243 0.50770000000000015 0.45820000000000005 8.2297643258941182 7.1033624641681508 7.3559385930340495 0.32740000000000008 34.053143300000009 83.512434936630015 7.6523696910101471 7.8605776406688905 7.187244509869763 -1.7444037112695974 8.2976603309308814 27.007925400000001 13.065863933333336 73.953628826650018 0.7633000000000002 0.73050000000000004 9.039080272923476 4.3193398666666676 9.8576081202405117 0.71730000000000005 0.55500000000000005\ndecision_type=2 2 2 2 2 2 2 2 2 2 2 2 2 2 2 2 2 2 2 2 2 2 2 2 2 2\nleft_child=1 3 12 4 8 14 13 -6 -1 16 11 -8 24 -5 17 -14 -10 -3 20 -20 -4 -22 23 -23 -2 -15\nright_child=2 5 18 6 7 -7 10 -9 9 -11 -12 -13 15 25 -16 -17 -18 -19 19 -21 21 22 -24 -25 -26 -27\nleaf_value=-0.14982579229627238 0.30957277550294127 -0.63804570464161914 0.078391037736205788 0.23055040161339133 -0.16662176814210036 -0.022773471785978279 0.35899071984559683 -0.61128421832900703 0.097425029499312699 0.30667644887631246 -0.072504736001182984 -0.017029424856353038 0.30577598893310171 0.58990845120812707 -0.51006545585278451 0.53261828960288571 -0.076913987383221541 -0.8775862248231846 -0.1959753055125876 -0.019779417379311839 -0.091791951527067331 -0.077234506973095668 0.049129288749785061 0.0097633588552039838 0.19943730247818087 0.44573309836128738\nleaf_weight=36 29 31 25 27 41 34 35 39 78 37 37 34 31 26 45 47 27 28 25 35 30 83 47 183 45 25\nleaf_count=36 29 31 25 27 41 34 35 39 78 37 37 34 31 26 45 47 27 28 25 35 30 83 47 183 45 25\ninternal_value=0 -0.079503 0.0768541 0.0530335 -0.076012 -0.502208 0.233699 -0.387344 0.0647918 0.119882 0.0885333 0.175117 0.350543 0.42795 -0.657424 0.446526 0.0521211 -0.761649 -0.0207208 -0.095124 -0.00835158 -0.014906 -0.00725328 -0.0174232 0.245594 0.527144\ninternal_weight=0 580 580 442 258 138 184 80 178 142 106 69 152 78 104 78 105 59 428 60 368 343 313 266 74 51\ninternal_count=1160 580 580 442 258 138 184 80 178 142 106 69 152 78 104 78 105 59 428 60 368 343 313 266 74 51\nis_linear=0\nshrinkage=0.0981432\n\n\nTree=40\nnum_leaves=31\nnum_cat=0\nsplit_feature=5 5 0 5 5 0 0 2 5 6 2 2 1 3 0 0 6 0 3 0 6 3 0 0 6 3 0 0 2 3\nsplit_gain=752.838 3663.66 2017.83 1245.56 1389.04 1133.65 668.878 464.004 274.785 229.139 182.654 177.394 165.136 162.812 342.759 127.933 91.0526 72.3505 43.8088 35.2272 52.0686 40.0726 22.9354 18.8343 14.1395 10.8162 10.2553 9.06033 11.2781 5.21366\nthreshold=0.68810000000000004 0.62130000000000007 8.7505287455758243 0.50770000000000015 0.45820000000000005 8.2297643258941182 7.1033624641681508 7.3559385930340495 0.32740000000000008 34.053143300000009 7.7725610900725073 7.187244509869763 -1.5096830256799323 87.084795057160008 7.6523696910101471 8.2791095175207534 27.007925400000001 8.9932039703338482 42.517813599030006 9.9992985793641758 4.3193398666666676 53.064688882560006 9.5699769314818948 9.2187805463783103 6.8011992000000001 2.7059948127700002 9.5344244536328393 10.557416050480994 8.1299971853108328 38.062840974490008\ndecision_type=2 2 2 2 2 2 2 2 2 2 2 2 2 2 2 2 2 2 2 2 2 2 2 2 2 2 2 2 2 2\nleft_child=1 3 10 4 8 12 11 -6 -1 16 24 -5 -3 14 -8 -12 -10 18 -4 20 21 22 -19 -22 -2 -21 -23 28 -27 -29\nright_child=2 5 17 6 7 -7 13 -9 9 -11 15 -13 -14 -15 -16 -17 -18 19 -20 25 23 26 -24 -25 -26 27 -28 29 -30 -31\nleaf_value=0.16552293333248744 -0.1931014130435508 0.77863186052790645 0.043187558031279036 -0.2560385311344493 0.1800629656061411 0.023967992552556175 -0.38727159203525641 0.65635952178534418 -0.11380610142646036 -0.34313192125540959 -0.3180230122037162 -0.5801228846001476 0.49703593654655331 0.078724287487612149 0.040509715045001317 -0.58155933771947477 0.092902582521357094 0.19151316258125231 0.22514383242221317 0.028138244862353834 -0.091023372420298704 0.062217805569828373 0.077461153982316316 0.016097006297860962 -0.3023819063232866 -0.019951577140946437 -0.01740754732806752 0.012691865829639366 -0.10224038630153018 -0.041940376399771127\nleaf_weight=36 28 65 26 27 41 34 36 39 78 37 33 51 39 35 35 52 27 29 26 37 28 26 47 34 39 38 36 47 29 25\nleaf_count=36 28 65 26 27 41 34 36 39 78 37 33 51 39 35 35 52 27 29 26 37 28 26 47 34 39 38 36 47 29 25\ninternal_value=0 0.0776843 -0.0803432 -0.0602744 0.0787443 0.517702 -0.254879 0.416479 -0.0739976 -0.13545 -0.386595 -0.471742 0.677551 -0.0928852 -0.177788 -0.483188 -0.0601248 0.0288382 0.136551 0.0136324 0.0417833 0.0752807 0.122754 -0.0323645 -0.259715 